{"learner":{"attributes":{"scikit_learn":"{\"_estimator_type\": \"regressor\"}"},"feature_names":["Temperatura","Dia da Semana","Mês","Vendas","Temp_DiaSemana_Interaction","Semana_Mes_Interaction"],"feature_types":["float","int","int","int","float","int"],"gradient_booster":{"model":{"gbtree_model_param":{"num_parallel_tree":"1","num_trees":"100"},"iteration_indptr":[0,1,2,3,4,5,6,7,8,9,10,11,12,13,14,15,16,17,18,19,20,21,22,23,24,25,26,27,28,29,30,31,32,33,34,35,36,37,38,39,40,41,42,43,44,45,46,47,48,49,50,51,52,53,54,55,56,57,58,59,60,61,62,63,64,65,66,67,68,69,70,71,72,73,74,75,76,77,78,79,80,81,82,83,84,85,86,87,88,89,90,91,92,93,94,95,96,97,98,99,100],"tree_info":[0,0,0,0,0,0,0,0,0,0,0,0,0,0,0,0,0,0,0,0,0,0,0,0,0,0,0,0,0,0,0,0,0,0,0,0,0,0,0,0,0,0,0,0,0,0,0,0,0,0,0,0,0,0,0,0,0,0,0,0,0,0,0,0,0,0,0,0,0,0,0,0,0,0,0,0,0,0,0,0,0,0,0,0,0,0,0,0,0,0,0,0,0,0,0,0,0,0,0,0],"trees":[{"base_weights":[4.86574E-5,-5.4726886E2,1.3005686E3,-1.136299E3,-1.00778465E2,7.362476E2,2.0857058E3,-1.3806113E3,-8.8852905E2,-3.4717178E2,2.3710228E1,5.2339056E2,2.718207E2,5.1487897E2,9.9548865E2,-4.1927502E2,-1.02713295E2,-2.8916876E2,-4.100496E2,-4.470488E2,-1.7565805E2,-1.585831E1,1.7802945E2,4.5786713E1,5.3248E2,4.7848953E1,-1.879443E2,-5.1780804E2,-8.147474E1,-1.9549156E2,1.827671E1,-6.0275393E0,-1.0824603E2,2.4158916E2,1.0175089E2,1.1027827E2,1.7758446E2,-4.586329E1,-1.5958347E2,-8.3058495E1,-3.3144737E1,-1.2812633E1,-2.9213E-1,-4.949743E1,1.0489503E0,1.7586714E1,7.780579E1,-2.5310547E0,4.0331512E1],"categories":[],"categories_nodes":[],"categories_segments":[],"categories_sizes":[],"default_left":[0,0,0,0,0,0,0,0,0,0,0,0,0,0,0,0,0,0,0,0,0,0,0,0,0,0,0,0,0,0,0,0,0,0,0,0,0,0,0,0,0,0,0,0,0,0,0,0,0],"id":0,"left_children":[1,3,5,7,9,11,13,15,17,19,21,23,-1,-1,-1,-1,-1,-1,25,27,29,31,33,-1,35,-1,-1,37,-1,39,-1,41,43,45,47,-1,-1,-1,-1,-1,-1,-1,-1,-1,-1,-1,-1,-1,-1],"loss_changes":[2.0427533E8,5.3010732E7,3.612531E7,4.03968E6,3.566321E6,1.369306E6,1.0242912E7,2.61584E5,1.263584E6,5.89553E5,4.7910578E5,2.983E3,0E0,0E0,0E0,0E0,0E0,0E0,1.0860631E6,1.57353E5,8.6985375E4,5.656682E4,5.2989938E4,0E0,1.77345E4,0E0,0E0,1.221E3,0E0,7.316956E4,0E0,1.0710373E4,3.8622133E4,1.0797156E4,3.355007E4,0E0,0E0,0E0,0E0,0E0,0E0,0E0,0E0,0E0,0E0,0E0,0E0,0E0,0E0],"parents":[2147483647,0,0,1,1,2,2,3,3,4,4,5,5,6,6,7,7,8,8,9,9,10,10,11,11,18,18,19,19,20,20,21,21,22,22,24,24,27,27,29,29,31,31,32,32,33,33,34,34],"right_children":[2,4,6,8,10,12,14,16,18,20,22,24,-1,-1,-1,-1,-1,-1,26,28,30,32,34,-1,36,-1,-1,38,-1,40,-1,42,44,46,48,-1,-1,-1,-1,-1,-1,-1,-1,-1,-1,-1,-1,-1,-1],"split_conditions":[8.9E1,4.9E1,1.27E2,2.7E1,7.1E1,1.04E2,1.92E2,1.2E1,2.81E1,4.2E1,7.8E1,1.19E1,2.718207E2,5.1487897E2,9.9548865E2,-4.1927502E2,-1.02713295E2,-2.8916876E2,2.86E1,6.3E1,2.9E1,2.5E1,2.3E1,4.5786713E1,5E0,4.7848953E1,-1.879443E2,1.35E1,-8.147474E1,6.2E1,1.827671E1,2.59E1,1.12E2,1.58E1,2.46E1,1.1027827E2,1.7758446E2,-4.586329E1,-1.5958347E2,-8.3058495E1,-3.3144737E1,-1.2812633E1,-2.9213E-1,-4.949743E1,1.0489503E0,1.7586714E1,7.780579E1,-2.5310547E0,4.0331512E1],"split_indices":[3,3,3,3,3,3,3,2,0,5,3,0,0,0,0,0,0,0,0,3,0,5,0,0,1,0,0,0,0,3,0,4,4,0,0,0,0,0,0,0,0,0,0,0,0,0,0,0,0],"split_type":[0,0,0,0,0,0,0,0,0,0,0,0,0,0,0,0,0,0,0,0,0,0,0,0,0,0,0,0,0,0,0,0,0,0,0,0,0,0,0,0,0,0,0,0,0,0,0,0,0],"sum_hessian":[2.85E2,2.01E2,8.4E1,8.6E1,1.15E2,5E1,3.4E1,4.1E1,4.5E1,3.8E1,7.7E1,2.4E1,2.6E1,2.8E1,6E0,4E1,1E0,3.8E1,7E0,2.3E1,1.5E1,6.2E1,1.5E1,1E0,2.3E1,2E0,5E0,1.5E1,8E0,1.4E1,1E0,5.7E1,5E0,7E0,8E0,8E0,1.5E1,1E0,1.4E1,6E0,8E0,6E0,5.1E1,3E0,2E0,1E0,6E0,2E0,6E0],"tree_param":{"num_deleted":"0","num_feature":"6","num_nodes":"49","size_leaf_vector":"1"}},{"base_weights":[2.9768865E0,-3.893479E2,9.352902E2,-8.063432E2,-7.3245E1,6.50389E2,1.8907161E3,-9.6296497E2,-6.071343E2,-2.5288814E2,1.7515604E1,4.1003503E2,8.8560114E2,4.3081082E2,7.3950586E2,-3.4024756E2,-8.3802124E2,-6.5841016E2,-1.982902E2,-3.2248605E2,-1.200324E2,-1.2077866E1,1.3294516E2,4.719329E1,1.2617539E2,1.8805551E2,2.86954E2,-4.8178864E2,-2.6639917E2,-5.1387966E1,-6.6743365E2,3.8279152E1,-1.1793996E2,-1.208165E2,-6.5233154E1,-7.31703E1,-6.874017E1,-4.4452367E0,-8.384696E1,1.8103648E2,7.5425644E1,-1.5767526E2,-3.942164E1,-2.204626E2,-1.4903186E2,4.227616E1,-4.6285477E1,-9.731041E0,-1.7749682E-1,-3.8360504E1,8.3916014E-1,3.08985E1,6.999877E1,3.454673E0,3.7275177E1],"categories":[],"categories_nodes":[],"categories_segments":[],"categories_sizes":[],"default_left":[0,0,0,0,0,0,0,0,0,0,0,0,0,0,0,0,0,0,0,0,0,0,0,0,0,0,0,0,0,0,0,0,0,0,0,0,0,0,0,0,0,0,0,0,0,0,0,0,0,0,0,0,0,0,0],"id":1,"left_children":[1,3,5,7,9,11,13,15,17,19,21,23,25,-1,-1,-1,27,29,31,33,35,37,39,-1,-1,-1,-1,41,-1,-1,43,-1,-1,-1,-1,-1,45,47,49,51,53,-1,-1,-1,-1,-1,-1,-1,-1,-1,-1,-1,-1,-1,-1],"loss_changes":[1.0497427E8,2.6567248E7,2.1907472E7,2.129792E6,1.8957538E6,3.42466E6,1.421496E6,5.4864E4,7.2896E5,3.21904E5,2.680507E5,2.7152E4,5.908E3,0E0,0E0,0E0,1.24068E5,4.3912E4,4.3114394E5,1.23134E5,7.853666E4,3.413785E4,3.0604219E4,0E0,0E0,0E0,0E0,2.3006625E4,0E0,0E0,3.7773E4,0E0,0E0,0E0,0E0,0E0,2.3696634E5,6.2371387E3,2.3242852E4,8.616281E3,2.6652824E4,0E0,0E0,0E0,0E0,0E0,0E0,0E0,0E0,0E0,0E0,0E0,0E0,0E0,0E0],"parents":[2147483647,0,0,1,1,2,2,3,3,4,4,5,5,6,6,7,7,8,8,9,9,10,10,11,11,12,12,16,16,17,17,18,18,19,19,20,20,21,21,22,22,27,27,30,30,36,36,37,37,38,38,39,39,40,40],"right_children":[2,4,6,8,10,12,14,16,18,20,22,24,26,-1,-1,-1,28,30,32,34,36,38,40,-1,-1,-1,-1,42,-1,-1,44,-1,-1,-1,-1,-1,46,48,50,52,54,-1,-1,-1,-1,-1,-1,-1,-1,-1,-1,-1,-1,-1,-1],"split_conditions":[8.9E1,4.9E1,1.45E2,2.9E1,7.1E1,1.08E2,1.92E2,1.7E1,2.81E1,4.4E1,7.8E1,1.92E1,1.19E2,4.3081082E2,7.3950586E2,-3.4024756E2,3E0,4E0,2.86E1,6E1,9.15E1,2.5E1,2.3E1,4.719329E1,1.2617539E2,1.8805551E2,2.86954E2,2.86E1,-2.6639917E2,-5.1387966E1,4E1,3.8279152E1,-1.1793996E2,-1.208165E2,-6.5233154E1,-7.31703E1,4.9E1,3E0,1.12E2,7E0,2.61E1,-1.5767526E2,-3.942164E1,-2.204626E2,-1.4903186E2,4.227616E1,-4.6285477E1,-9.731041E0,-1.7749682E-1,-3.8360504E1,8.3916014E-1,3.08985E1,6.999877E1,3.454673E0,3.7275177E1],"split_indices":[3,3,3,3,3,3,3,3,0,5,3,4,3,0,0,0,2,5,0,3,4,5,0,0,0,0,0,0,0,0,3,0,0,0,0,0,5,5,4,2,0,0,0,0,0,0,0,0,0,0,0,0,0,0,0],"split_type":[0,0,0,0,0,0,0,0,0,0,0,0,0,0,0,0,0,0,0,0,0,0,0,0,0,0,0,0,0,0,0,0,0,0,0,0,0,0,0,0,0,0,0,0,0,0,0,0,0,0,0,0,0,0,0],"sum_hessian":[2.85E2,2.01E2,8.4E1,8.6E1,1.15E2,6.6E1,1.8E1,4.6E1,4E1,3.8E1,7.7E1,3.4E1,3.2E1,1.2E1,6E0,1.6E1,3E1,3.5E1,5E0,2.4E1,1.4E1,6.2E1,1.5E1,2E0,3.2E1,9E0,2.3E1,5E0,2.5E1,1E0,3.4E1,2E0,3E0,1.2E1,1.2E1,3E0,1.1E1,5.7E1,5E0,7E0,8E0,4E0,1E0,2.2E1,1.2E1,3E0,8E0,6E0,5.1E1,3E0,2E0,4E0,3E0,4E0,4E0],"tree_param":{"num_deleted":"0","num_feature":"6","num_nodes":"55","size_leaf_vector":"1"}},{"base_weights":[3.291442E0,-2.4235483E2,7.7934357E2,-5.79432E2,-1.8354294E1,5.7906793E2,4.7925766E2,-6.911764E2,-4.3720233E2,-1.8377113E2,5.047136E1,4.1997086E2,2.2977403E2,-2.0980205E2,-4.7346424E1,-4.7257825E2,-1.5207996E2,-2.331822E2,-8.916796E1,-9.207362E0,1.6638661E2,1.03033745E2,1.4667136E2,-4.9036407E2,-2.0770053E2,3.0623318E1,-9.140347E1,-2.911987E2,-1.5722862E2,-6.539667E1,-5.258098E1,8.040288E-2,-5.3120472E1,1.0191329E2,2.1727992E2,-1.4946994E2,-3.5783188E1,5.601682E1,-1.2042477E2,-2.0861317E1,-9.11627E1,-5.1452106E1,-1.5739478E1,6.406702E1,-2.7766655E1,-8.6534395E0,1.3160102E0,-3.9463524E1,-2.1804338E0,3.468115E1,1.2159058E0,4.4631886E1,7.5107254E1],"categories":[],"categories_nodes":[],"categories_segments":[],"categories_sizes":[],"default_left":[0,0,0,0,0,0,0,0,0,0,0,0,0,0,0,0,0,0,0,0,0,0,0,0,0,0,0,0,0,0,0,0,0,0,0,0,0,0,0,0,0,0,0,0,0,0,0,0,0,0,0,0,0],"id":2,"left_children":[1,3,5,7,9,11,-1,13,15,17,19,21,-1,-1,-1,23,25,27,29,31,33,-1,-1,35,37,-1,-1,39,41,-1,43,45,47,49,51,-1,-1,-1,-1,-1,-1,-1,-1,-1,-1,-1,-1,-1,-1,-1,-1,-1,-1],"loss_changes":[5.4710284E7,1.6449556E7,1.0381392E7,1.08054E6,1.5120849E6,1.372754E6,0E0,9.4276E4,3.41675E5,1.61511E5,6.517934E5,6.168E3,0E0,0E0,0E0,6.77495E4,2.63805E5,6.437925E4,5.923547E4,2.5699115E4,8.2856625E4,0E0,0E0,3.6935E4,3.805767E5,0E0,0E0,1.5398875E4,1.04480625E4,0E0,1.5806933E5,6.7282407E3,3.85994E4,2.0967594E4,1.276375E3,0E0,0E0,0E0,0E0,0E0,0E0,0E0,0E0,0E0,0E0,0E0,0E0,0E0,0E0,0E0,0E0,0E0,0E0],"parents":[2147483647,0,0,1,1,2,2,3,3,4,4,5,5,7,7,8,8,9,9,10,10,11,11,15,15,16,16,17,17,18,18,19,19,20,20,23,23,24,24,27,27,28,28,30,30,31,31,32,32,33,33,34,34],"right_children":[2,4,6,8,10,12,-1,14,16,18,20,22,-1,-1,-1,24,26,28,30,32,34,-1,-1,36,38,-1,-1,40,42,-1,44,46,48,50,52,-1,-1,-1,-1,-1,-1,-1,-1,-1,-1,-1,-1,-1,-1,-1,-1,-1,-1],"split_conditions":[9.9E1,4.9E1,1.51E2,2.9E1,7.1E1,1.23E2,4.7925766E2,1.2E1,2.81E1,4.4E1,7.8E1,1.08E2,2.2977403E2,-2.0980205E2,-4.7346424E1,4E1,2.86E1,6E1,7.5E1,1.074E2,8.9E1,1.03033745E2,1.4667136E2,4.8E1,5E0,3.0623318E1,-9.140347E1,1.35E1,6.8E1,-6.539667E1,4.5E1,2.59E1,1.152E2,1.1E1,2.5E1,-1.4946994E2,-3.5783188E1,5.601682E1,-1.2042477E2,-2.0861317E1,-9.11627E1,-5.1452106E1,-1.5739478E1,6.406702E1,-2.7766655E1,-8.6534395E0,1.3160102E0,-3.9463524E1,-2.1804338E0,3.468115E1,1.2159058E0,4.4631886E1,7.5107254E1],"split_indices":[3,3,3,3,3,3,0,2,0,5,3,3,0,0,0,5,0,3,4,4,3,0,0,3,1,0,0,0,3,0,5,4,4,2,5,0,0,0,0,0,0,0,0,0,0,0,0,0,0,0,0,0,0],"split_type":[0,0,0,0,0,0,0,0,0,0,0,0,0,0,0,0,0,0,0,0,0,0,0,0,0,0,0,0,0,0,0,0,0,0,0,0,0,0,0,0,0,0,0,0,0,0,0,0,0,0,0,0,0],"sum_hessian":[2.85E2,2.17E2,6.8E1,8.6E1,1.31E2,5.6E1,1.2E1,4.6E1,4E1,3.8E1,9.3E1,3.2E1,2.4E1,4.5E1,1E0,3.5E1,5E0,2.4E1,1.4E1,6.2E1,3.1E1,1.8E1,1.4E1,3.2E1,3E0,2E0,3E0,1.2E1,1.2E1,2E0,1.2E1,5.2E1,1E1,1.5E1,1.6E1,3.1E1,1E0,1E0,2E0,1E0,1.1E1,1E1,2E0,1E0,1.1E1,6E0,4.6E1,3E0,7E0,1.3E1,2E0,7E0,9E0],"tree_param":{"num_deleted":"0","num_feature":"6","num_nodes":"53","size_leaf_vector":"1"}},{"base_weights":[3.3162308E0,-1.7992476E2,5.40443E2,-4.121264E2,-2.0694538E1,4.4633496E2,4.550782E2,-1.849394E2,-3.5739575E2,-1.3398112E2,2.8626255E1,2.919551E2,6.108887E2,-2.1771223E2,-3.8495047E2,-1.8702618E2,-7.960792E1,-7.22266E0,1.08263954E2,3.0873215E2,1.5381836E2,1.8625935E2,4.5245655E1,-7.127226E1,6.073993E0,-4.3300858E2,-2.796572E2,-2.2880542E2,-1.26544334E2,-2.0157169E2,-3.9053402E1,-3.5644412E0,-7.919889E1,6.2162956E1,1.3895451E2,6.025983E1,3.422073E2,5.816683E1,5.6130726E1,-1.3967786E2,-7.5785545E1,-9.212784E1,-3.803894E0,-1.7732117E1,-7.2328E1,-4.2876064E1,-1.2208167E1,-6.754994E1,-1.6078876E1,1.1850363E1,-3.97095E1,-1.950333E0,6.005577E0,-3.557007E1,-6.94336E-2,2.5666481E1,-3.2781116E1,1.6956928E1,5.482832E1,1.1308927E2,6.267326E1,2.9812977E1,-3.637903E0],"categories":[],"categories_nodes":[],"categories_segments":[],"categories_sizes":[],"default_left":[0,0,0,0,0,0,0,0,0,0,0,0,0,0,0,0,0,0,0,0,0,0,0,0,0,0,0,0,0,0,0,0,0,0,0,0,0,0,0,0,0,0,0,0,0,0,0,0,0,0,0,0,0,0,0,0,0,0,0,0,0,0,0],"id":3,"left_children":[1,3,5,7,9,11,-1,-1,13,15,17,19,21,23,25,27,29,31,33,35,37,-1,-1,-1,-1,39,41,43,45,47,49,51,53,55,57,-1,59,61,-1,-1,-1,-1,-1,-1,-1,-1,-1,-1,-1,-1,-1,-1,-1,-1,-1,-1,-1,-1,-1,-1,-1,-1,-1],"loss_changes":[2.82464E7,7.9038055E6,6.03128E6,7.52648E5,7.1902056E5,1.549105E6,0E0,0E0,1.89467E5,9.759625E4,2.5772519E5,3.826E4,5.3229E4,7.097869E4,1.72397E5,1.905675E4,9.599775E4,1.6305904E4,3.0978438E4,4.68085E4,8.218859E3,0E0,0E0,0E0,0E0,1.05742E5,1.4992438E5,6.602125E3,8.242797E3,5.3891562E3,1.29839516E5,4.3547314E3,9.29893E3,6.148077E4,4.7446375E4,0E0,2.78065E4,9.895368E3,0E0,0E0,0E0,0E0,0E0,0E0,0E0,0E0,0E0,0E0,0E0,0E0,0E0,0E0,0E0,0E0,0E0,0E0,0E0,0E0,0E0,0E0,0E0,0E0,0E0],"parents":[2147483647,0,0,1,1,2,2,3,3,4,4,5,5,8,8,9,9,10,10,11,11,12,12,13,13,14,14,15,15,16,16,17,17,18,18,19,19,20,20,25,25,26,26,27,27,28,28,29,29,30,30,31,31,32,32,33,33,34,34,36,36,37,37],"right_children":[2,4,6,8,10,12,-1,-1,14,16,18,20,22,24,26,28,30,32,34,36,38,-1,-1,-1,-1,40,42,44,46,48,50,52,54,56,58,-1,60,62,-1,-1,-1,-1,-1,-1,-1,-1,-1,-1,-1,-1,-1,-1,-1,-1,-1,-1,-1,-1,-1,-1,-1,-1,-1],"split_conditions":[9.5E1,4.9E1,2E2,1.7E1,7.1E1,1.23E2,4.550782E2,-1.849394E2,9E0,3.5E1,7.8E1,2.93E1,3.26E1,1.248E2,3.7E1,6E1,8.92E1,3.6E1,2.5E1,4E0,3.11E1,1.8625935E2,4.5245655E1,-7.127226E1,6.073993E0,1.1E1,4E1,1.35E1,2.5E1,1.87E1,1.232E2,1.2E1,2.24E1,2.2E1,8.5E1,6.025983E1,6.3E1,2.97E1,5.6130726E1,-1.3967786E2,-7.5785545E1,-9.212784E1,-3.803894E0,-1.7732117E1,-7.2328E1,-4.2876064E1,-1.2208167E1,-6.754994E1,-1.6078876E1,1.1850363E1,-3.97095E1,-1.950333E0,6.005577E0,-3.557007E1,-6.94336E-2,2.5666481E1,-3.2781116E1,1.6956928E1,5.482832E1,1.1308927E2,6.267326E1,2.9812977E1,-3.637903E0],"split_indices":[3,3,3,3,3,3,0,0,5,5,3,0,0,4,3,3,4,5,5,2,0,0,0,0,0,2,5,0,5,0,4,2,0,5,3,0,5,0,0,0,0,0,0,0,0,0,0,0,0,0,0,0,0,0,0,0,0,0,0,0,0,0,0],"split_type":[0,0,0,0,0,0,0,0,0,0,0,0,0,0,0,0,0,0,0,0,0,0,0,0,0,0,0,0,0,0,0,0,0,0,0,0,0,0,0,0,0,0,0,0,0,0,0,0,0,0,0,0,0,0,0,0,0,0,0,0,0,0,0],"sum_hessian":[2.85E2,2.13E2,7.2E1,8.6E1,1.27E2,6.7E1,5E0,1.6E1,7E1,3.8E1,8.9E1,3.6E1,3.1E1,1.3E1,5.7E1,1.8E1,2E1,6.2E1,2.7E1,3.1E1,5E0,3E1,1E0,1.2E1,1E0,3.7E1,2E1,9E0,9E0,4E0,1.6E1,6E1,2E0,1.2E1,1.5E1,9E0,2.2E1,2E0,3E0,3E1,7E0,1.8E1,2E0,1E0,8E0,7E0,2E0,3E0,1E0,9E0,7E0,5.4E1,6E0,1E0,1E0,1.1E1,1E0,6E0,9E0,1.6E1,6E0,1E0,1E0],"tree_param":{"num_deleted":"0","num_feature":"6","num_nodes":"63","size_leaf_vector":"1"}},{"base_weights":[3.090004E0,-1.2961594E2,3.9207605E2,-2.6957367E2,5.1584196E0,2.817052E2,8.7981036E2,-3.8749924E2,-2.172368E2,-1.9508638E1,7.80944E1,1.6574881E2,3.4286652E2,6.424641E2,4.3704294E2,-1.3854399E2,-3.081717E2,-2.3643408E2,-8.404954E1,-1.1090902E0,-1.02845985E2,4.7916462E1,1.2037698E2,2.0404128E2,1.2059758E2,8.691908E1,1.2257076E2,5.5355717E1,2.0094203E2,-1.5304803E2,-3.2899323E2,-2.8439465E2,-1.9716821E2,-1.7910023E2,6.5831345E1,-1.0380778E1,1.1964468E2,-1.3382387E2,1.5799164E1,-4.673517E0,1.1423813E2,1.3276816E2,-5.3021854E-1,9.757801E0,2.1794022E2,2.533208E1,1.6012312E2,-5.1746143E1,-1.4209607E1,-1.0162259E2,-2.887663E1,-4.1014263E1,-9.602366E1,-6.327284E1,-7.261469E0,-6.3823414E1,-1.8997816E1,4.976084E1,-1.6845167E1,-2.1122303E1,-1.2615229E0,-2.767403E1,5.870377E1,-2.121408E1,-4.6961945E1,2.291175E1,-8.954835E0,-2.5726007E1,1.0935178E1,4.3407116E1,1.4283985E1,4.8136723E1,2.1896837E1,1.655431E1,6.8968E1,1.1045636E1,-3.092212E0,1.6291065E1,5.4779896E1],"categories":[],"categories_nodes":[],"categories_segments":[],"categories_sizes":[],"default_left":[0,0,0,0,0,0,0,0,0,0,0,0,0,0,0,0,0,0,0,0,0,0,0,0,0,0,0,0,0,0,0,0,0,0,0,0,0,0,0,0,0,0,0,0,0,0,0,0,0,0,0,0,0,0,0,0,0,0,0,0,0,0,0,0,0,0,0,0,0,0,0,0,0,0,0,0,0,0,0],"id":4,"left_children":[1,3,5,7,9,11,13,15,17,19,21,23,25,27,-1,-1,29,31,33,35,37,39,41,43,45,-1,-1,-1,-1,47,49,51,53,55,57,59,61,63,65,67,69,71,-1,-1,73,75,77,-1,-1,-1,-1,-1,-1,-1,-1,-1,-1,-1,-1,-1,-1,-1,-1,-1,-1,-1,-1,-1,-1,-1,-1,-1,-1,-1,-1,-1,-1,-1,-1],"loss_changes":[1.4814356E7,4.0380118E6,3.681864E6,5.63866E5,1.994263E5,3.75785E5,8.44384E5,4.04315E4,1.7189025E5,1.27155625E5,2.996E4,1.5159E4,1.77815E4,1.41435E4,0E0,0E0,7.7865E3,6.63355E4,1.6849953E5,7.8493805E4,5.724492E4,6.331528E4,1.6883281E4,1.9133938E4,4.4894234E4,0E0,0E0,0E0,0E0,4.7585938E1,1.427875E3,9.8527E4,8.7587375E4,1.3793844E4,7.032786E4,2.3799965E4,9.860613E4,6.133828E3,1.3340031E4,3.980346E4,9.341836E3,4.839703E3,0E0,0E0,6.7690625E3,2.4264045E3,1.1490281E4,0E0,0E0,0E0,0E0,0E0,0E0,0E0,0E0,0E0,0E0,0E0,0E0,0E0,0E0,0E0,0E0,0E0,0E0,0E0,0E0,0E0,0E0,0E0,0E0,0E0,0E0,0E0,0E0,0E0,0E0,0E0,0E0],"parents":[2147483647,0,0,1,1,2,2,3,3,4,4,5,5,6,6,7,7,8,8,9,9,10,10,11,11,12,12,13,13,16,16,17,17,18,18,19,19,20,20,21,21,22,22,23,23,24,24,29,29,30,30,31,31,32,32,33,33,34,34,35,35,36,36,37,37,38,38,39,39,40,40,41,41,44,44,45,45,46,46],"right_children":[2,4,6,8,10,12,14,16,18,20,22,24,26,28,-1,-1,30,32,34,36,38,40,42,44,46,-1,-1,-1,-1,48,50,52,54,56,58,60,62,64,66,68,70,72,-1,-1,74,76,78,-1,-1,-1,-1,-1,-1,-1,-1,-1,-1,-1,-1,-1,-1,-1,-1,-1,-1,-1,-1,-1,-1,-1,-1,-1,-1,-1,-1,-1,-1,-1,-1],"split_conditions":[9.5E1,6E1,1.51E2,2.3E1,7.8E1,1.08E2,2.37E2,1.5E1,1.1E1,1.244E2,1.308E2,1.098E2,1.37E2,3E0,4.3704294E2,-1.3854399E2,2E0,3.4E1,9.1E1,4.2E1,1.44E2,9E0,3.06E1,1.92E1,1.274E2,8.691908E1,1.2257076E2,5.5355717E1,2.0094203E2,4E0,1.2E1,9E0,1E1,3.4E1,1.2E1,6.7E1,7.5E1,2.19E1,2.45E1,8.3E1,2.15E1,2.49E1,-5.3021854E-1,9.757801E0,1.25E1,2.11E1,2.27E1,-5.1746143E1,-1.4209607E1,-1.0162259E2,-2.887663E1,-4.1014263E1,-9.602366E1,-6.327284E1,-7.261469E0,-6.3823414E1,-1.8997816E1,4.976084E1,-1.6845167E1,-2.1122303E1,-1.2615229E0,-2.767403E1,5.870377E1,-2.121408E1,-4.6961945E1,2.291175E1,-8.954835E0,-2.5726007E1,1.0935178E1,4.3407116E1,1.4283985E1,4.8136723E1,2.1896837E1,1.655431E1,6.8968E1,1.1045636E1,-3.092212E0,1.6291065E1,5.4779896E1],"split_indices":[3,3,3,3,3,3,3,3,2,4,4,4,3,2,0,0,2,3,4,5,4,2,0,4,4,0,0,0,0,1,2,5,2,3,2,3,4,0,0,3,0,0,0,0,0,0,0,0,0,0,0,0,0,0,0,0,0,0,0,0,0,0,0,0,0,0,0,0,0,0,0,0,0,0,0,0,0,0,0],"split_type":[0,0,0,0,0,0,0,0,0,0,0,0,0,0,0,0,0,0,0,0,0,0,0,0,0,0,0,0,0,0,0,0,0,0,0,0,0,0,0,0,0,0,0,0,0,0,0,0,0,0,0,0,0,0,0,0,0,0,0,0,0,0,0,0,0,0,0,0,0,0,0,0,0,0,0,0,0,0,0],"sum_hessian":[2.85E2,2.13E2,7.2E1,1.04E2,1.09E2,6E1,1.2E1,3E1,7.4E1,8.2E1,2.7E1,2.2E1,3.8E1,1E1,2E0,1.3E1,1.7E1,6.4E1,1E1,6.8E1,1.4E1,1.7E1,1E1,1E1,1.2E1,2.4E1,1.4E1,1E0,9E0,3E0,1.4E1,2.6E1,3.8E1,6E0,4E0,6.4E1,4E0,1.1E1,3E0,1E1,7E0,9E0,1E0,1E0,9E0,4E0,8E0,2E0,1E0,1.3E1,1E0,6E0,2E1,3.5E1,3E0,4E0,2E0,2E0,2E0,5E0,5.9E1,1E0,3E0,4E0,7E0,1E0,2E0,3E0,7E0,4E0,3E0,5E0,4E0,1E0,8E0,3E0,1E0,2E0,6E0],"tree_param":{"num_deleted":"0","num_feature":"6","num_nodes":"79","size_leaf_vector":"1"}},{"base_weights":[4.0912704E0,-9.0583755E1,2.9752542E2,-2.1385527E2,-8.024936E0,2.5485934E2,3.4963434E2,-9.866385E1,-1.8729063E2,-6.235465E1,2.2110611E1,1.886496E2,1.3271748E2,-1.970615E2,-8.3269806E1,-9.459765E1,-3.01969E1,2.530868E0,7.177033E1,1.2787109E2,2.1976839E2,-2.0998238E2,-1.0370625E2,1.4803711E1,-1.1842826E2,-1.06514305E2,2.513531E1,4.093052E1,-8.034388E1,-2.963919E0,8.294626E1,4.488765E1,9.4912384E1,1.615747E2,9.193746E1,2.4238036E2,1.599991E2,-6.460706E1,-1.2436793E1,-4.551855E1,4.9274086E1,1.4653821E1,-7.9921513E0,-3.979193E1,-7.1056094E0,-4.630663E1,-2.3678003E1,-5.8638706E0,4.5495422E1,8.785217E0,-2.9838701E1,4.3245E-1,-1.9169641E1,4.430922E1,3.639026E0,2.1966217E1,-4.5268216E0,3.8480457E1,1.58288355E1,1.2323658E1,5.145055E1,5.7969437E0,3.7748768E1,4.0871075E1,7.7519714E1,-1.852881E0,5.2700233E1],"categories":[],"categories_nodes":[],"categories_segments":[],"categories_sizes":[],"default_left":[0,0,0,0,0,0,0,0,0,0,0,0,0,0,0,0,0,0,0,0,0,0,0,0,0,0,0,0,0,0,0,0,0,0,0,0,0,0,0,0,0,0,0,0,0,0,0,0,0,0,0,0,0,0,0,0,0,0,0,0,0,0,0,0,0,0,0],"id":5,"left_children":[1,3,5,7,9,11,-1,-1,13,15,17,19,-1,21,23,25,27,29,31,33,35,37,39,41,43,45,-1,47,49,51,53,55,57,59,61,63,65,-1,-1,-1,-1,-1,-1,-1,-1,-1,-1,-1,-1,-1,-1,-1,-1,-1,-1,-1,-1,-1,-1,-1,-1,-1,-1,-1,-1,-1,-1],"loss_changes":[7.9722845E6,2.2067258E6,2.295133E6,2.04239E5,2.1585919E5,7.608625E5,0E0,0E0,5.7786E4,4.5875953E4,8.2465945E4,7.024825E4,0E0,5.783475E4,2.9338094E4,5.7815734E4,9.245915E4,2.7641504E4,1.0670492E4,9.367125E3,5.819E3,4.269925E4,1.5359808E5,5.53386E3,4.9370156E3,1.6853328E4,0E0,7.662065E4,3.4351414E4,1.5930288E4,1.6550125E4,2.31962E4,1.010343E4,3.7205E3,2.7100906E4,2.20275E3,3.232925E4,0E0,0E0,0E0,0E0,0E0,0E0,0E0,0E0,0E0,0E0,0E0,0E0,0E0,0E0,0E0,0E0,0E0,0E0,0E0,0E0,0E0,0E0,0E0,0E0,0E0,0E0,0E0,0E0,0E0,0E0],"parents":[2147483647,0,0,1,1,2,2,3,3,4,4,5,5,8,8,9,9,10,10,11,11,13,13,14,14,15,15,16,16,17,17,18,18,19,19,20,20,21,21,22,22,23,23,24,24,25,25,27,27,28,28,29,29,30,30,31,31,32,32,33,33,34,34,35,35,36,36],"right_children":[2,4,6,8,10,12,-1,-1,14,16,18,20,-1,22,24,26,28,30,32,34,36,38,40,42,44,46,-1,48,50,52,54,56,58,60,62,64,66,-1,-1,-1,-1,-1,-1,-1,-1,-1,-1,-1,-1,-1,-1,-1,-1,-1,-1,-1,-1,-1,-1,-1,-1,-1,-1,-1,-1,-1,-1],"split_conditions":[9.8E1,4.9E1,2.37E2,1.6E1,7.4E1,1.45E2,3.4963434E2,-9.866385E1,1.225E2,6.3E1,8.3E1,1.08E2,1.3271748E2,4E1,2E0,2.9E1,1.044E2,4E1,9.6E1,1.098E2,6E1,6E0,3.4E1,2.86E1,6E0,1.79E1,2.513531E1,8.64E1,2.06E1,2.5E1,1.75E1,5.64E1,2.49E1,2.33E1,1.274E2,7E0,6E0,-6.460706E1,-1.2436793E1,-4.551855E1,4.9274086E1,1.4653821E1,-7.9921513E0,-3.979193E1,-7.1056094E0,-4.630663E1,-2.3678003E1,-5.8638706E0,4.5495422E1,8.785217E0,-2.9838701E1,4.3245E-1,-1.9169641E1,4.430922E1,3.639026E0,2.1966217E1,-4.5268216E0,3.8480457E1,1.58288355E1,1.2323658E1,5.145055E1,5.7969437E0,3.7748768E1,4.0871075E1,7.7519714E1,-1.852881E0,5.2700233E1],"split_indices":[3,3,3,3,3,3,0,0,4,3,3,3,0,5,2,0,4,5,4,4,5,1,3,0,1,0,0,4,0,5,0,4,0,4,4,5,1,0,0,0,0,0,0,0,0,0,0,0,0,0,0,0,0,0,0,0,0,0,0,0,0,0,0,0,0,0,0],"split_type":[0,0,0,0,0,0,0,0,0,0,0,0,0,0,0,0,0,0,0,0,0,0,0,0,0,0,0,0,0,0,0,0,0,0,0,0,0,0,0,0,0,0,0,0,0,0,0,0,0,0,0,0,0,0,0,0,0,0,0,0,0,0,0,0,0,0,0],"sum_hessian":[2.85E2,2.16E2,6.9E1,8.6E1,1.3E2,6.7E1,2E0,1.4E1,7.2E1,4.6E1,8.4E1,5.1E1,1.6E1,6.5E1,7E0,2.2E1,2.4E1,6.1E1,2.3E1,1.9E1,3.2E1,5.6E1,9E0,2E0,5E0,2.1E1,1E0,1E1,1.4E1,5.8E1,3E0,1.2E1,1.1E1,8E0,1.1E1,2.1E1,1.1E1,5.4E1,2E0,8E0,1E0,1E0,1E0,4E0,1E0,6E0,1.5E1,7E0,3E0,2E0,1.2E1,5.5E1,3E0,1E0,2E0,8E0,4E0,5E0,6E0,1E0,7E0,4E0,7E0,4E0,1.7E1,1E0,1E1],"tree_param":{"num_deleted":"0","num_feature":"6","num_nodes":"67","size_leaf_vector":"1"}},{"base_weights":[5.0366464E0,-7.2040695E1,1.9766858E2,-1.4914627E2,-1.040027E1,1.5528549E2,7.0864014E2,-2.6098483E2,-1.32117E2,-4.9464085E1,5.25643E0,1.1908167E2,2.673379E2,2.6138308E1,8.155171E2,-8.714938E1,-1.367125E2,-1.3675502E2,3.405611E1,-3.268445E1,-8.005205E1,6.770677E-1,6.3912067E1,8.652137E1,1.50904E2,3.5688354E2,1.6001303E2,7.158831E1,2.7002478E2,-8.142499E0,-4.9256668E1,-7.644254E1,-1.4969633E2,-6.0397706E0,2.136502E1,-5.8294E1,4.9591614E1,-2.935382E1,-2.8618397E1,3.3379436E0,-6.695748E1,3.766282E1,2.6477392E1,5.7060287E1,1.1241618E2,1.6137808E2,8.3857056E1,4.585757E1,3.9333945E2,-3.1136068E1,2.1169232E2,-2.6122381E1,1.245575E1,-5.035715E1,-2.8187979E1,-1.3409985E0,-2.2005901E1,-6.887943E0,3.8938896E1,-1.4079347E0,-1.0802906E1,-5.2913165E-1,1.1155694E1,-2.5569527E1,-4.5613403E0,1.0427289E1,-9.965332E-1,2.400425E1,-1.12630005E1,3.875404E1,1.490984E1,3.6484577E1,6.4241E1,-3.7941287E0,3.1706192E1,3.0380018E1,1.27542145E2,-1.5543238E1,1.5320069E0,3.4687164E1,8.365644E1],"categories":[],"categories_nodes":[],"categories_segments":[],"categories_sizes":[],"default_left":[0,0,0,0,0,0,0,0,0,0,0,0,0,0,0,0,0,0,0,0,0,0,0,0,0,0,0,0,0,0,0,0,0,0,0,0,0,0,0,0,0,0,0,0,0,0,0,0,0,0,0,0,0,0,0,0,0,0,0,0,0,0,0,0,0,0,0,0,0,0,0,0,0,0,0,0,0,0,0,0,0],"id":6,"left_children":[1,3,5,7,9,11,13,15,17,19,21,23,25,-1,27,-1,29,31,33,35,37,39,41,43,45,47,49,-1,-1,-1,-1,51,53,-1,-1,55,57,59,-1,61,63,-1,65,67,69,71,73,-1,75,77,79,-1,-1,-1,-1,-1,-1,-1,-1,-1,-1,-1,-1,-1,-1,-1,-1,-1,-1,-1,-1,-1,-1,-1,-1,-1,-1,-1,-1,-1,-1],"loss_changes":[4.2606415E6,9.727771E5,1.665796E6,1.388315E5,7.059521E4,2.80533E5,3.27498E5,6.29625E2,6.7085125E4,1.4320953E4,2.2250977E4,4.911225E4,1.158825E5,0E0,2.914E4,0E0,7.586078E3,5.0218125E4,7.474831E3,5.135311E4,5.7560703E3,1.4260937E4,1.0518695E4,1.7997969E4,6.8326875E3,6.816E3,1.0537578E5,0E0,0E0,0E0,0E0,2.368207E4,4.9010125E4,0E0,0E0,1.4261758E4,3.7893887E4,4.8755566E2,0E0,1.3189369E4,1.5413428E3,0E0,1.3491777E3,3.9919832E4,1.0401891E4,2.4305688E4,1.3976895E4,0E0,2.1964875E4,2.5125088E3,1.9375281E4,0E0,0E0,0E0,0E0,0E0,0E0,0E0,0E0,0E0,0E0,0E0,0E0,0E0,0E0,0E0,0E0,0E0,0E0,0E0,0E0,0E0,0E0,0E0,0E0,0E0,0E0,0E0,0E0,0E0,0E0],"parents":[2147483647,0,0,1,1,2,2,3,3,4,4,5,5,6,6,7,7,8,8,9,9,10,10,11,11,12,12,14,14,16,16,17,17,18,18,19,19,20,20,21,21,22,22,23,23,24,24,25,25,26,26,31,31,32,32,35,35,36,36,37,37,39,39,40,40,42,42,43,43,44,44,45,45,46,46,48,48,49,49,50,50],"right_children":[2,4,6,8,10,12,14,16,18,20,22,24,26,-1,28,-1,30,32,34,36,38,40,42,44,46,48,50,-1,-1,-1,-1,52,54,-1,-1,56,58,60,-1,62,64,-1,66,68,70,72,74,-1,76,78,80,-1,-1,-1,-1,-1,-1,-1,-1,-1,-1,-1,-1,-1,-1,-1,-1,-1,-1,-1,-1,-1,-1,-1,-1,-1,-1,-1,-1,-1,-1],"split_conditions":[9.2E1,5.1E1,2E2,1.4E1,6.9E1,1.44E2,1.77E1,2.51E1,1.464E2,1.172E2,4.9E1,1.08E2,1.32E2,2.6138308E1,2.01E2,-8.714938E1,2.67E1,9E0,2.75E1,9.9E1,2.19E1,4E1,1.75E1,2.34E1,1.2E1,1.45E2,1.4E2,7.158831E1,2.7002478E2,-8.142499E0,-4.9256668E1,1.248E2,1E1,-6.0397706E0,2.136502E1,7E0,6E1,6.1E1,-2.8618397E1,8.3E1,2.24E1,3.766282E1,3.12E1,2.24E1,4E1,1.284E2,1.144E2,4.585757E1,2.14E1,2E1,7E0,-2.6122381E1,1.245575E1,-5.035715E1,-2.8187979E1,-1.3409985E0,-2.2005901E1,-6.887943E0,3.8938896E1,-1.4079347E0,-1.0802906E1,-5.2913165E-1,1.1155694E1,-2.5569527E1,-4.5613403E0,1.0427289E1,-9.965332E-1,2.400425E1,-1.12630005E1,3.875404E1,1.490984E1,3.6484577E1,6.4241E1,-3.7941287E0,3.1706192E1,3.0380018E1,1.27542145E2,-1.5543238E1,1.5320069E0,3.4687164E1,8.365644E1],"split_indices":[3,3,3,3,3,3,0,0,4,4,5,3,4,0,3,0,0,5,0,4,0,5,0,0,2,3,4,0,0,0,0,4,2,0,0,2,3,3,0,3,0,0,0,0,5,4,4,0,4,0,2,0,0,0,0,0,0,0,0,0,0,0,0,0,0,0,0,0,0,0,0,0,0,0,0,0,0,0,0,0,0],"split_type":[0,0,0,0,0,0,0,0,0,0,0,0,0,0,0,0,0,0,0,0,0,0,0,0,0,0,0,0,0,0,0,0,0,0,0,0,0,0,0,0,0,0,0,0,0,0,0,0,0,0,0,0,0,0,0,0,0,0,0,0,0,0,0,0,0,0,0,0,0,0,0,0,0,0,0,0,0,0,0,0,0],"sum_hessian":[2.85E2,2.04E2,8.1E1,9E1,1.14E2,7.6E1,5E0,1E1,8E1,3.2E1,8.2E1,5.9E1,1.7E1,1E0,4E0,7E0,3E0,7.8E1,2E0,2.2E1,1E1,7.7E1,5E0,3.1E1,2.8E1,8E0,9E0,1E0,3E0,1E0,2E0,1.5E1,6.3E1,1E0,1E0,1.7E1,5E0,3E0,7E0,7.5E1,2E0,1E0,4E0,1.6E1,1.5E1,2.3E1,5E0,2E0,6E0,2E0,7E0,1.4E1,1E0,4.6E1,1.7E1,4E0,1.3E1,3E0,2E0,1E0,2E0,6.6E1,9E0,1E0,1E0,3E0,1E0,1.3E1,3E0,1.1E1,4E0,1.5E1,8E0,1E0,4E0,1E0,5E0,1E0,1E0,4E0,3E0],"tree_param":{"num_deleted":"0","num_feature":"6","num_nodes":"81","size_leaf_vector":"1"}},{"base_weights":[5.780673E0,-4.570333E1,1.683565E2,-9.9694305E1,4.4261003E0,1.3969513E2,2.257025E2,-1.3546477E2,-6.0630848E1,-7.398511E0,3.1327322E1,1.0305103E2,2.4141008E2,-5.874905E1,-1.1729468E2,-1.0826889E2,-3.8391945E1,3.22959E0,-3.74122E1,1.5031569E1,5.7748478E1,7.867068E1,1.2026808E2,3.1529214E2,1.8435155E2,-6.029021E1,-1.302304E2,-1.2562748E2,2.2816498E1,3.1723093E1,-6.9276115E1,-3.8679307E0,3.106856E1,-4.796976E1,1.944986E1,2.3937777E1,-2.7135756E1,3.0064869E1,4.0916504E1,1.0700259E2,4.6466553E1,9.27286E1,1.4926001E2,2.5823E1,3.4391992E2,8.386283E1,2.7086313E2,-2.3687696E1,-3.764191E0,-4.7503075E1,-2.465697E1,-4.465007E1,-1.9803835E1,8.8959235E-1,3.5102406E1,-2.306697E1,1.8160273E1,-1.2407504E1,4.0609637E-1,-4.2684712E0,-1.909645E1,1.5790284E1,-1.201551E1,-6.6634097E0,1.1645282E1,2.8968751E0,1.7220015E1,3.6423416E1,6.991724E0,-2.7073976E-1,2.28555E1,3.224251E1,-2.1482155E1,5.8134525E1,2.6932703E1,1.1458226E2,2.8775429E1,-7.9396977E0,3.9986206E1,3.4164944E1,9.62647E1],"categories":[],"categories_nodes":[],"categories_segments":[],"categories_sizes":[],"default_left":[0,0,0,0,0,0,0,0,0,0,0,0,0,0,0,0,0,0,0,0,0,0,0,0,0,0,0,0,0,0,0,0,0,0,0,0,0,0,0,0,0,0,0,0,0,0,0,0,0,0,0,0,0,0,0,0,0,0,0,0,0,0,0,0,0,0,0,0,0,0,0,0,0,0,0,0,0,0,0,0,0],"id":7,"left_children":[1,3,5,7,9,11,-1,13,15,17,19,21,23,-1,25,27,29,31,33,35,37,39,41,43,45,47,49,51,-1,53,55,57,-1,59,61,63,-1,-1,65,67,69,71,73,-1,75,77,79,-1,-1,-1,-1,-1,-1,-1,-1,-1,-1,-1,-1,-1,-1,-1,-1,-1,-1,-1,-1,-1,-1,-1,-1,-1,-1,-1,-1,-1,-1,-1,-1,-1,-1],"loss_changes":[2.4015302E6,5.9046625E5,1.0498106E6,1.3850506E5,3.6494773E4,2.248485E5,0E0,3.6259875E4,5.0933062E4,2.5639908E4,1.4201293E4,1.19460625E4,1.3540625E4,0E0,2.4593625E4,6.074825E4,8.2319125E4,4.3127188E4,1.3539822E4,2.3772887E4,5.1921133E3,1.6925672E4,8.515156E3,9.7680625E3,8.160591E4,7.922293E3,3.425575E4,1.0926422E4,0E0,2.90843E4,3.0351523E4,1.121427E4,0E0,8.620586E3,1.000619E4,1.5969399E4,0E0,0E0,5.1138066E3,1.1642047E4,1.8369291E4,4.889322E4,1.4383281E4,0E0,1.051125E4,4.1698074E4,1.0569E4,0E0,0E0,0E0,0E0,0E0,0E0,0E0,0E0,0E0,0E0,0E0,0E0,0E0,0E0,0E0,0E0,0E0,0E0,0E0,0E0,0E0,0E0,0E0,0E0,0E0,0E0,0E0,0E0,0E0,0E0,0E0,0E0,0E0,0E0],"parents":[2147483647,0,0,1,1,2,2,3,3,4,4,5,5,7,7,8,8,9,9,10,10,11,11,12,12,14,14,15,15,16,16,17,17,18,18,19,19,20,20,21,21,22,22,23,23,24,24,25,25,26,26,27,27,29,29,30,30,31,31,33,33,34,34,35,35,38,38,39,39,40,40,41,41,42,42,44,44,45,45,46,46],"right_children":[2,4,6,8,10,12,-1,14,16,18,20,22,24,-1,26,28,30,32,34,36,38,40,42,44,46,48,50,52,-1,54,56,58,-1,60,62,64,-1,-1,66,68,70,72,74,-1,76,78,80,-1,-1,-1,-1,-1,-1,-1,-1,-1,-1,-1,-1,-1,-1,-1,-1,-1,-1,-1,-1,-1,-1,-1,-1,-1,-1,-1,-1,-1,-1,-1,-1,-1,-1],"split_conditions":[9.9E1,6E1,2.37E2,3.2E1,7.7E1,1.45E2,2.257025E2,1.4E1,2.03E1,1.044E2,9E0,1.15E2,1.032E2,-5.874905E1,9E0,1.012E2,2.23E1,9E1,1.44E2,8E0,1.75E1,1.098E2,1.284E2,2.14E1,7E0,2.86E1,2.5E1,5.1E1,2.2816498E1,3.6E1,2.93E1,6.8E1,3.106856E1,2.15E1,3.12E1,1.83E1,-2.7135756E1,3.0064869E1,8.5E1,1.09E2,1.455E2,1.278E2,1.33E2,2.5823E1,1.1E1,1.4E2,1.89E1,-2.3687696E1,-3.764191E0,-4.7503075E1,-2.465697E1,-4.465007E1,-1.9803835E1,8.8959235E-1,3.5102406E1,-2.306697E1,1.8160273E1,-1.2407504E1,4.0609637E-1,-4.2684712E0,-1.909645E1,1.5790284E1,-1.201551E1,-6.6634097E0,1.1645282E1,2.8968751E0,1.7220015E1,3.6423416E1,6.991724E0,-2.7073976E-1,2.28555E1,3.224251E1,-2.1482155E1,5.8134525E1,2.6932703E1,1.1458226E2,2.8775429E1,-7.9396977E0,3.9986206E1,3.4164944E1,9.62647E1],"split_indices":[3,3,3,3,3,3,0,3,0,4,2,3,4,0,5,4,0,4,4,2,0,4,4,4,2,0,5,3,0,5,0,3,0,0,0,0,0,0,3,3,4,4,3,0,2,4,0,0,0,0,0,0,0,0,0,0,0,0,0,0,0,0,0,0,0,0,0,0,0,0,0,0,0,0,0,0,0,0,0,0,0],"split_type":[0,0,0,0,0,0,0,0,0,0,0,0,0,0,0,0,0,0,0,0,0,0,0,0,0,0,0,0,0,0,0,0,0,0,0,0,0,0,0,0,0,0,0,0,0,0,0,0,0,0,0,0,0,0,0,0,0,0,0,0,0,0,0,0,0,0,0,0,0,0,0,0,0,0,0,0,0,0,0,0,0],"sum_hessian":[2.85E2,2.17E2,6.8E1,1.04E2,1.13E2,6.6E1,2E0,5.3E1,5.1E1,7.9E1,3.4E1,5E1,1.6E1,1E1,4.3E1,1.5E1,3.6E1,5.9E1,2E1,2.2E1,1.2E1,2.3E1,2.7E1,5E0,1.1E1,9E0,3.4E1,1.4E1,1E0,1.1E1,2.5E1,5.6E1,3E0,1.7E1,3E0,2.1E1,1E0,2E0,1E1,1.1E1,1.2E1,1.6E1,1.1E1,1E0,4E0,6E0,5E0,6E0,3E0,2E1,1.4E1,9E0,5E0,9E0,2E0,2.4E1,1E0,6E0,5E1,6E0,1.1E1,2E0,1E0,5E0,1.6E1,4E0,6E0,9E0,2E0,5E0,7E0,1.5E1,1E0,5E0,6E0,3E0,1E0,2E0,4E0,2E0,3E0],"tree_param":{"num_deleted":"0","num_feature":"6","num_nodes":"81","size_leaf_vector":"1"}},{"base_weights":[6.066677E0,-1.4455487E1,2.4136166E2,-7.0017426E1,2.44593E1,1.8691856E2,2.1586649E2,-9.775796E1,-4.201732E1,-9.613673E-2,6.270295E1,1.3368459E2,2.279994E2,-1.382948E2,-7.5395226E1,-5.881392E1,-6.212685E0,8.616105E0,-2.0521526E1,5.5096066E1,1.0621155E2,1.663511E2,5.468125E1,1.113669E2,2.78737E2,-1.6114277E1,-4.365307E1,-8.484169E1,2.3748566E1,-3.4407883E1,-1.1559165E2,6.579947E1,-2.382743E1,1.9547195E0,9.2158615E1,-2.7079615E1,-9.002413E0,6.6601326E1,9.277527E0,3.9431236E1,2.0355875E1,1.3378162E1,5.3212334E1,1.1506673E1,2.3888624E1,4.7772987E1,-1.2020802E1,1.5943727E1,9.224338E1,-5.467923E0,-2.7934855E1,-2.3388721E1,4.9332222E1,-1.43068695E1,2.7650795E1,-3.849842E1,-1.1655555E1,2.5468409E1,1.2770691E0,-9.682942E0,1.5436231E1,-1.415996E-2,1.2802845E1,4.2092285E0,3.245487E1,-1.35799675E1,2.0221531E0,1.2974426E1,2.8147186E1,-9.579413E-2,1.7226418E1,4.400757E-1,8.720069E0,5.034009E0,1.4399415E-1],"categories":[],"categories_nodes":[],"categories_segments":[],"categories_sizes":[],"default_left":[0,0,0,0,0,0,0,0,0,0,0,0,0,0,0,0,0,0,0,0,0,0,0,0,0,0,0,0,0,0,0,0,0,0,0,0,0,0,0,0,0,0,0,0,0,0,0,0,0,0,0,0,0,0,0,0,0,0,0,0,0,0,0,0,0,0,0,0,0,0,0,0,0,0,0],"id":8,"left_children":[1,3,5,7,9,11,-1,13,15,17,19,21,23,25,27,29,31,33,35,37,39,41,43,45,47,-1,-1,49,51,53,55,57,59,61,63,-1,65,67,69,-1,71,-1,-1,73,-1,-1,-1,-1,-1,-1,-1,-1,-1,-1,-1,-1,-1,-1,-1,-1,-1,-1,-1,-1,-1,-1,-1,-1,-1,-1,-1,-1,-1,-1,-1],"loss_changes":[1.3845151E6,5.725284E5,4.6429125E5,8.0556875E4,1.46504E5,1.763175E4,0E0,3.8525E4,3.331279E4,1.7260105E4,1.4337016E4,2.187289E4,3.4052125E4,3.1691562E3,3.6667547E4,4.868008E4,2.5668873E4,3.766246E4,2.2485625E4,2.7848453E4,1.4650781E4,2.8275781E3,4.4692266E3,4.263187E4,2.9044688E4,0E0,0E0,1.704389E4,7.0059945E4,5.1467934E4,5.7655E3,4.339287E3,1.1837666E4,5.219359E3,4.7418203E3,0E0,1.5148615E4,2.3278953E4,5.5626826E3,0E0,4.509873E2,0E0,0E0,1.6638898E2,0E0,0E0,0E0,0E0,0E0,0E0,0E0,0E0,0E0,0E0,0E0,0E0,0E0,0E0,0E0,0E0,0E0,0E0,0E0,0E0,0E0,0E0,0E0,0E0,0E0,0E0,0E0,0E0,0E0,0E0,0E0],"parents":[2147483647,0,0,1,1,2,2,3,3,4,4,5,5,7,7,8,8,9,9,10,10,11,11,12,12,13,13,14,14,15,15,16,16,17,17,18,18,19,19,20,20,21,21,22,22,23,23,24,24,27,27,28,28,29,29,30,30,31,31,32,32,33,33,34,34,36,36,37,37,38,38,40,40,43,43],"right_children":[2,4,6,8,10,12,-1,14,16,18,20,22,24,26,28,30,32,34,36,38,40,42,44,46,48,-1,-1,50,52,54,56,58,60,62,64,-1,66,68,70,-1,72,-1,-1,74,-1,-1,-1,-1,-1,-1,-1,-1,-1,-1,-1,-1,-1,-1,-1,-1,-1,-1,-1,-1,-1,-1,-1,-1,-1,-1,-1,-1,-1,-1,-1],"split_conditions":[1.44E2,6.3E1,2.88E2,3.2E1,9.1E1,1.57E2,2.1586649E2,6.9E1,1.025E2,1.074E2,7.7E1,1.512E2,2E1,6E0,3E1,8.85E1,2.1E1,9.6E1,1.12E2,6E1,1.33E2,1.58E1,2.66E1,1.89E1,3E0,-1.6114277E1,-4.365307E1,1.85E1,3E0,8.43E1,4.2E1,4E0,2.93E1,6E0,5E0,-2.7079615E1,6.9E1,1.08E2,1.617E2,3.9431236E1,2.9E1,1.3378162E1,5.3212334E1,2.32E1,2.3888624E1,4.7772987E1,-1.2020802E1,1.5943727E1,9.224338E1,-5.467923E0,-2.7934855E1,-2.3388721E1,4.9332222E1,-1.43068695E1,2.7650795E1,-3.849842E1,-1.1655555E1,2.5468409E1,1.2770691E0,-9.682942E0,1.5436231E1,-1.415996E-2,1.2802845E1,4.2092285E0,3.245487E1,-1.35799675E1,2.0221531E0,1.2974426E1,2.8147186E1,-9.579413E-2,1.7226418E1,4.400757E-1,8.720069E0,5.034009E0,1.4399415E-1],"split_indices":[3,3,3,3,3,3,0,4,4,4,5,4,0,5,3,4,0,4,4,5,3,0,0,0,2,0,0,0,2,4,5,2,0,1,2,0,3,3,4,0,0,0,0,0,0,0,0,0,0,0,0,0,0,0,0,0,0,0,0,0,0,0,0,0,0,0,0,0,0,0,0,0,0,0,0],"split_type":[0,0,0,0,0,0,0,0,0,0,0,0,0,0,0,0,0,0,0,0,0,0,0,0,0,0,0,0,0,0,0,0,0,0,0,0,0,0,0,0,0,0,0,0,0,0,0,0,0,0,0,0,0,0,0,0,0,0,0,0,0,0,0,0,0,0,0,0,0,0,0,0,0,0,0],"sum_hessian":[2.85E2,2.63E2,2.2E1,1.08E2,1.55E2,2.1E1,1E0,5.3E1,5.5E1,9.5E1,6E1,1.1E1,1E1,1.7E1,3.6E1,3.7E1,1.8E1,6.7E1,2.8E1,5.3E1,7E0,7E0,4E0,4E0,6E0,2E0,1.5E1,3.3E1,3E0,2.7E1,1E1,3E0,1.5E1,6.3E1,4E0,3E0,2.5E1,4.2E1,1.1E1,5E0,2E0,1E0,6E0,2E0,2E0,3E0,1E0,1E0,5E0,4E0,2.9E1,2E0,1E0,2.5E1,2E0,8E0,2E0,2E0,1E0,1.4E1,1E0,6.1E1,2E0,1E0,3E0,7E0,1.8E1,2.4E1,1.8E1,1E1,1E0,1E0,1E0,1E0,1E0],"tree_param":{"num_deleted":"0","num_feature":"6","num_nodes":"75","size_leaf_vector":"1"}},{"base_weights":[6.0004687E0,-9.944135E0,1.887559E2,-4.9668503E1,1.7875738E1,1.4173375E2,1.8348648E2,-8.357684E1,-3.5733982E1,3.161701E0,5.1932514E1,1.015506E2,1.7268504E2,-4.348548E1,-7.1824135E1,-4.70049E1,1.1583061E1,-2.8473467E-1,2.6814741E1,3.430264E1,7.040725E1,7.424643E1,6.0284473E1,8.510728E1,2.1057129E2,-5.8374027E1,-1.3793129E2,-8.6068405E1,-3.219064E1,9.3938736E1,-2.3697058E1,5.9950924E0,-1.9635672E1,2.162434E1,1.5000732E0,6.437418E1,-6.145345E0,8.9577705E1,2.5661743E1,-1.192513E1,2.8416203E1,1.23413574E2,-1.0217689E1,1.3552149E1,6.918257E1,-8.891274E0,-2.0370834E1,-1.0586453E1,-4.8114883E1,-1.872481E1,-3.570853E1,-1.7799006E1,-5.030067E0,-3.0983217E0,5.0067688E1,-2.5009813E1,1.6366497E0,3.617892E-1,2.1553162E1,-8.342113E0,2.8538818E0,-1.0240274E1,6.494474E0,4.3840847E1,1.2166255E1,-1.6684845E1,4.957349E0,3.516487E1,8.575159E0,-5.9658985E0,2.285442E1,-5.4886966E0,1.223877E-1,4.2747513E1,9.92688E0],"categories":[],"categories_nodes":[],"categories_segments":[],"categories_sizes":[],"default_left":[0,0,0,0,0,0,0,0,0,0,0,0,0,0,0,0,0,0,0,0,0,0,0,0,0,0,0,0,0,0,0,0,0,0,0,0,0,0,0,0,0,0,0,0,0,0,0,0,0,0,0,0,0,0,0,0,0,0,0,0,0,0,0,0,0,0,0,0,0,0,0,0,0,0,0],"id":9,"left_children":[1,3,5,7,9,11,-1,13,15,17,19,21,23,-1,25,27,29,31,33,35,37,39,-1,41,43,45,47,49,51,53,55,57,59,-1,61,63,65,67,69,71,-1,73,-1,-1,-1,-1,-1,-1,-1,-1,-1,-1,-1,-1,-1,-1,-1,-1,-1,-1,-1,-1,-1,-1,-1,-1,-1,-1,-1,-1,-1,-1,-1,-1,-1],"loss_changes":[8.3527044E5,2.9264138E5,3.706458E5,4.8515594E4,7.800939E4,9.825594E3,0E0,1.1949891E4,4.267567E4,8.974689E3,1.2893078E4,1.764796E4,1.857675E4,0E0,1.6844562E4,3.4266016E4,4.871436E4,1.1905209E4,1.5934523E4,3.2020273E4,1.6572695E4,2.0536828E4,0E0,2.7027422E4,1.2781344E4,4.833078E3,3.5583984E3,5.823617E3,1.9097586E4,3.975667E4,2.1328844E4,2.324987E4,5.9809434E3,0E0,7.9186113E3,2.3287125E4,1.4376972E4,2.1936219E4,1.9923549E4,2.4316861E2,0E0,2.1778555E3,0E0,0E0,0E0,0E0,0E0,0E0,0E0,0E0,0E0,0E0,0E0,0E0,0E0,0E0,0E0,0E0,0E0,0E0,0E0,0E0,0E0,0E0,0E0,0E0,0E0,0E0,0E0,0E0,0E0,0E0,0E0,0E0,0E0],"parents":[2147483647,0,0,1,1,2,2,3,3,4,4,5,5,7,7,8,8,9,9,10,10,11,11,12,12,14,14,15,15,16,16,17,17,18,18,19,19,20,20,21,21,23,23,24,24,25,25,26,26,27,27,28,28,29,29,30,30,31,31,32,32,34,34,35,35,36,36,37,37,38,38,39,39,41,41],"right_children":[2,4,6,8,10,12,-1,14,16,18,20,22,24,-1,26,28,30,32,34,36,38,40,-1,42,44,46,48,50,52,54,56,58,60,-1,62,64,66,68,70,72,-1,74,-1,-1,-1,-1,-1,-1,-1,-1,-1,-1,-1,-1,-1,-1,-1,-1,-1,-1,-1,-1,-1,-1,-1,-1,-1,-1,-1,-1,-1,-1,-1,-1,-1],"split_conditions":[1.44E2,6.3E1,2.88E2,2.3E1,9.9E1,1.57E2,1.8348648E2,9E0,2.73E1,1.45E2,2.33E1,3.06E1,2E1,-4.348548E1,1.088E2,3.2E1,1.155E2,1.074E2,2.49E1,1.85E1,2.97E1,4E0,6.0284473E1,1.89E1,3E0,1.1E1,4E0,2.8E1,2.03E1,2.81E1,1.225E2,9.6E1,8E1,2.162434E1,2E1,6E0,2.14E1,1.644E2,6E0,2.21E1,2.8416203E1,2E2,-1.0217689E1,1.3552149E1,6.918257E1,-8.891274E0,-2.0370834E1,-1.0586453E1,-4.8114883E1,-1.872481E1,-3.570853E1,-1.7799006E1,-5.030067E0,-3.0983217E0,5.0067688E1,-2.5009813E1,1.6366497E0,3.617892E-1,2.1553162E1,-8.342113E0,2.8538818E0,-1.0240274E1,6.494474E0,4.3840847E1,1.2166255E1,-1.6684845E1,4.957349E0,3.516487E1,8.575159E0,-5.9658985E0,2.285442E1,-5.4886966E0,1.223877E-1,4.2747513E1,9.92688E0],"split_indices":[3,3,3,3,3,3,0,3,0,4,0,0,0,0,4,3,4,4,0,0,0,2,0,0,2,5,2,3,0,0,4,4,3,0,5,1,0,4,1,0,0,3,0,0,0,0,0,0,0,0,0,0,0,0,0,0,0,0,0,0,0,0,0,0,0,0,0,0,0,0,0,0,0,0,0],"split_type":[0,0,0,0,0,0,0,0,0,0,0,0,0,0,0,0,0,0,0,0,0,0,0,0,0,0,0,0,0,0,0,0,0,0,0,0,0,0,0,0,0,0,0,0,0,0,0,0,0,0,0,0,0,0,0,0,0,0,0,0,0,0,0,0,0,0,0,0,0,0,0,0,0,0,0],"sum_hessian":[2.85E2,2.63E2,2.2E1,1.08E2,1.55E2,2.1E1,1E0,3E1,7.8E1,1.09E2,4.6E1,1.1E1,1E1,3E0,2.7E1,6.3E1,1.5E1,9.6E1,1.3E1,2.5E1,2.1E1,1E1,1E0,4E0,6E0,2.4E1,3E0,1.6E1,4.7E1,4E0,1.1E1,7.3E1,2.3E1,4E0,9E0,1.4E1,1.1E1,1.4E1,7E0,2E0,8E0,3E0,1E0,1E0,5E0,7E0,1.7E1,1E0,2E0,1.1E1,5E0,1.6E1,3.1E1,2E0,2E0,3E0,8E0,6.9E1,4E0,1.8E1,5E0,3E0,6E0,2E0,1.2E1,3E0,8E0,9E0,5E0,4E0,3E0,1E0,1E0,2E0,1E0],"tree_param":{"num_deleted":"0","num_feature":"6","num_nodes":"75","size_leaf_vector":"1"}},{"base_weights":[5.4105005E0,1.7812153E0,1.5596353E2,-1.4637325E1,7.0706696E1,-4.1336967E1,2.6981711E0,4.765453E1,1.15444244E2,-8.406489E1,-3.3137894E1,-3.2937727E0,1.902617E1,3.1540943E1,4.3259438E1,1.6078455E2,8.563762E1,-7.9859624E0,-2.7426222E1,-3.809389E1,9.090733E0,1.3435291E1,-4.675542E0,4.5037203E0,3.871306E1,1.1785083E1,5.2955296E1,9.70525E0,1.8000113E2,7.219287E0,1.1968807E2,-8.991311E0,-3.2075397E1,8.379135E0,-6.432459E0,-4.709199E0,4.046631E-2,6.4454136E0,-9.006368E0,2.8308638E1,5.583703E0,-4.3104496E0,7.513864E0,2.1421696E1,8.8213625E0,6.1393013E1,1.221482E1,1.25099125E1,-8.9002695E0,8.034668E-2,4.6130966E1],"categories":[],"categories_nodes":[],"categories_segments":[],"categories_sizes":[],"default_left":[0,0,0,0,0,0,0,0,0,0,0,0,0,0,0,0,0,0,0,0,0,0,0,0,0,0,0,0,0,0,0,0,0,0,0,0,0,0,0,0,0,0,0,0,0,0,0,0,0,0,0],"id":10,"left_children":[1,3,-1,5,7,9,11,13,15,17,19,21,23,-1,25,27,29,-1,-1,31,33,-1,35,37,39,41,43,-1,45,47,49,-1,-1,-1,-1,-1,-1,-1,-1,-1,-1,-1,-1,-1,-1,-1,-1,-1,-1,-1,-1],"loss_changes":[5.330791E5,3.2355684E5,0E0,1.0703025E5,5.1219938E4,2.9094234E4,1.3857609E4,5.052117E3,1.0556719E4,3.4821797E3,1.6670531E4,7.118402E3,1.0689917E4,0E0,1.0667242E4,8.985172E3,3.384828E4,0E0,0E0,3.5928914E4,5.7758447E3,0E0,5.4101094E3,1.4129155E4,1.6141074E4,3.8280835E3,1.0066906E4,0E0,8.829203E3,7.596499E3,3.6589344E4,0E0,0E0,0E0,0E0,0E0,0E0,0E0,0E0,0E0,0E0,0E0,0E0,0E0,0E0,0E0,0E0,0E0,0E0,0E0,0E0],"parents":[2147483647,0,0,1,1,3,3,4,4,5,5,6,6,7,7,8,8,9,9,10,10,11,11,12,12,14,14,15,15,16,16,19,19,20,20,22,22,23,23,24,24,25,25,26,26,28,28,29,29,30,30],"right_children":[2,4,-1,6,8,10,12,14,16,18,20,22,24,-1,26,28,30,-1,-1,32,34,-1,36,38,40,42,44,-1,46,48,50,-1,-1,-1,-1,-1,-1,-1,-1,-1,-1,-1,-1,-1,-1,-1,-1,-1,-1,-1,-1],"split_conditions":[2.88E2,1.06E2,1.5596353E2,5.1E1,1.45E2,1.63E1,8.3E1,1.88E1,1.032E2,2.99E1,1.225E2,5.2E1,2.43E1,3.1540943E1,1.5E1,2.14E1,1.4E2,-7.9859624E0,-2.7426222E1,1.155E2,5E0,1.3435291E1,6.9E1,2.24E1,2.49E1,2.31E1,6E1,9.70525E0,1.1E1,1.89E1,1.48E2,-8.991311E0,-3.2075397E1,8.379135E0,-6.432459E0,-4.709199E0,4.046631E-2,6.4454136E0,-9.006368E0,2.8308638E1,5.583703E0,-4.3104496E0,7.513864E0,2.1421696E1,8.8213625E0,6.1393013E1,1.221482E1,1.25099125E1,-8.9002695E0,8.034668E-2,4.6130966E1],"split_indices":[3,3,0,3,3,0,3,4,4,4,4,3,0,0,5,4,4,0,0,4,2,0,3,0,0,0,5,0,2,0,3,0,0,0,0,0,0,0,0,0,0,0,0,0,0,0,0,0,0,0,0],"split_type":[0,0,0,0,0,0,0,0,0,0,0,0,0,0,0,0,0,0,0,0,0,0,0,0,0,0,0,0,0,0,0,0,0,0,0,0,0,0,0,0,0,0,0,0,0,0,0,0,0,0,0],"sum_hessian":[2.85E2,2.84E2,1E0,2.3E2,5.4E1,9E1,1.4E2,3.7E1,1.7E1,1.3E1,7.7E1,1.03E2,3.7E1,1E0,3.6E1,5E0,1.2E1,2E0,1.1E1,6.9E1,8E0,2E0,1.01E2,2.2E1,1.5E1,9E0,2.7E1,1E0,4E0,4E0,8E0,6.3E1,6E0,5E0,3E0,3E1,7.1E1,1.5E1,7E0,3E0,1.2E1,3E0,6E0,1.4E1,1.3E1,3E0,1E0,2E0,2E0,2E0,6E0],"tree_param":{"num_deleted":"0","num_feature":"6","num_nodes":"51","size_leaf_vector":"1"}},{"base_weights":[4.9050345E0,1.8212154E0,1.3256903E2,-1.2270679E1,4.697139E1,-3.534389E1,-1.3485607E0,2.9067648E1,8.308523E1,-4.0203228E1,2.3189554E1,-7.910113E0,1.1415012E1,1.5231248E1,4.40985E1,1.1183963E2,6.221053E1,-7.369764E1,-3.2773376E1,-4.3304443E-2,1.3931055E1,-3.0361591E1,-2.5460613E0,3.4178238E1,4.9057817E0,3.6479786E1,-1.2598694E1,6.895451E1,2.1586294E1,8.249451E0,1.199601E2,3.117536E1,1.180458E2,-2.7384491E1,-6.0315723E0,-7.632014E0,-2.3827442E1,-2.1325074E-1,2.9389346E-1,-1.5699596E1,1.2486573E1,1.3958744E1,-1.509029E0,-2.4104372E1,2.5067446E0,2.9776419E1,5.7561374E0,-1.5860578E1,2.009668E0,1.4644227E0,2.8715124E1,-5.376636E0,1.0569309E1,1.3610913E1,4.2216698E1,1.6305804E0,1.8292927E1,6.561402E0,4.0986477E1],"categories":[],"categories_nodes":[],"categories_segments":[],"categories_sizes":[],"default_left":[0,0,0,0,0,0,0,0,0,0,0,0,0,0,0,0,0,0,0,0,0,0,0,0,0,0,0,0,0,0,0,0,0,0,0,0,0,0,0,0,0,0,0,0,0,0,0,0,0,0,0,0,0,0,0,0,0,0,0],"id":11,"left_children":[1,3,-1,5,7,9,11,13,15,17,19,21,23,25,27,29,31,33,35,37,-1,39,41,-1,43,45,47,49,51,-1,53,55,57,-1,-1,-1,-1,-1,-1,-1,-1,-1,-1,-1,-1,-1,-1,-1,-1,-1,-1,-1,-1,-1,-1,-1,-1,-1,-1],"loss_changes":[3.8460975E5,1.8190805E5,0E0,5.489017E4,4.155186E4,2.084264E4,1.2568874E4,9.103051E3,6.2476562E3,1.3760484E4,3.242617E3,1.1845355E4,3.347223E4,1.5834582E4,1.082193E4,2.180461E3,2.2312734E4,8.530816E3,1.6795508E4,3.4277692E0,0E0,3.2226773E4,1.0108314E4,0E0,1.5083645E4,1.437877E4,9.679504E3,1.6680371E4,7.639479E3,0E0,4.4561016E3,8.1064785E3,5.9444844E3,0E0,0E0,0E0,0E0,0E0,0E0,0E0,0E0,0E0,0E0,0E0,0E0,0E0,0E0,0E0,0E0,0E0,0E0,0E0,0E0,0E0,0E0,0E0,0E0,0E0,0E0],"parents":[2147483647,0,0,1,1,3,3,4,4,5,5,6,6,7,7,8,8,9,9,10,10,11,11,12,12,13,13,14,14,15,15,16,16,17,17,18,18,19,19,21,21,22,22,24,24,25,25,26,26,27,27,28,28,30,30,31,31,32,32],"right_children":[2,4,-1,6,8,10,12,14,16,18,20,22,24,26,28,30,32,34,36,38,-1,40,42,-1,44,46,48,50,52,-1,54,56,58,-1,-1,-1,-1,-1,-1,-1,-1,-1,-1,-1,-1,-1,-1,-1,-1,-1,-1,-1,-1,-1,-1,-1,-1,-1,-1],"split_conditions":[2.88E2,9.9E1,1.3256903E2,3.8E1,1.44E2,1.225E2,9E0,2.33E1,1.172E2,1.4E1,1.38E2,5.5E1,4.1E1,1.85E1,2.74E1,2.14E1,2E2,2.51E1,1.155E2,3E0,1.3931055E1,1.016E2,5.6E1,3.4178238E1,4.9E1,6E0,2.14E1,3E0,1.13E2,8.249451E0,1.45E2,7E0,1.77E1,-2.7384491E1,-6.0315723E0,-7.632014E0,-2.3827442E1,-2.1325074E-1,2.9389346E-1,-1.5699596E1,1.2486573E1,1.3958744E1,-1.509029E0,-2.4104372E1,2.5067446E0,2.9776419E1,5.7561374E0,-1.5860578E1,2.009668E0,1.4644227E0,2.8715124E1,-5.376636E0,1.0569309E1,1.3610913E1,4.2216698E1,1.6305804E0,1.8292927E1,6.561402E0,4.0986477E1],"split_indices":[3,3,0,3,3,4,2,0,4,3,4,3,3,0,0,4,3,0,4,2,0,4,3,0,3,1,0,2,3,0,3,2,0,0,0,0,0,0,0,0,0,0,0,0,0,0,0,0,0,0,0,0,0,0,0,0,0,0,0],"split_type":[0,0,0,0,0,0,0,0,0,0,0,0,0,0,0,0,0,0,0,0,0,0,0,0,0,0,0,0,0,0,0,0,0,0,0,0,0,0,0,0,0,0,0,0,0,0,0,0,0,0,0,0,0,0,0,0,0,0,0],"sum_hessian":[2.85E2,2.84E2,1E0,2.17E2,6.7E1,6.9E1,1.48E2,4.6E1,2.1E1,6.4E1,5E0,9.8E1,5E1,2.5E1,2.1E1,7E0,1.4E1,1E1,5.4E1,3E0,2E0,1.8E1,8E1,2E0,4.8E1,1.4E1,1.1E1,9E0,1.2E1,1E0,6E0,1E1,4E0,7E0,3E0,4.8E1,6E0,2E0,1E0,1.4E1,4E0,3E0,7.7E1,1E0,4.7E1,2E0,1.2E1,3E0,8E0,3E0,6E0,3E0,9E0,2E0,4E0,6E0,4E0,1E0,3E0],"tree_param":{"num_deleted":"0","num_feature":"6","num_nodes":"59","size_leaf_vector":"1"}},{"base_weights":[4.454941E0,1.8346963E0,1.1268369E2,-7.669166E0,4.171756E1,-3.5203033E1,-2.4054623E0,2.5982508E1,6.4139114E1,-2.4352928E1,-2.8759018E1,-4.727711E0,1.9354723E1,1.6044981E1,4.8228077E1,8.629733E1,4.804546E1,-2.4098541E1,-2.7383213E1,-3.6612322E0,-1.9608923E1,4.901127E1,-1.2237292E1,2.2014744E1,-1.0521461E1,3.7266907E1,2.5981636E1,9.476831E1,4.0500736E0,2.3633944E1,9.21417E1,-7.9667177E0,2.7975647E0,-2.186534E0,5.839103E0,2.3576807E1,7.532368E0,-8.32886E0,8.2207036E-1,2.2343336E1,4.873412E0,-1.7851319E0,1.5815216E1,1.0888746E1,3.3269447E1,-2.7314394E0,1.1114722E1,5.577173E0,3.1764551E1],"categories":[],"categories_nodes":[],"categories_segments":[],"categories_sizes":[],"default_left":[0,0,0,0,0,0,0,0,0,0,0,0,0,0,0,0,0,0,0,0,0,0,0,0,0,0,0,0,0,0,0,0,0,0,0,0,0,0,0,0,0,0,0,0,0,0,0,0,0],"id":12,"left_children":[1,3,-1,5,7,9,11,13,15,-1,17,19,21,23,25,27,29,31,-1,33,-1,35,37,39,-1,-1,41,43,-1,45,47,-1,-1,-1,-1,-1,-1,-1,-1,-1,-1,-1,-1,-1,-1,-1,-1,-1,-1],"loss_changes":[2.7745247E5,1.08346695E5,0E0,3.3394188E4,1.773775E4,8.626816E3,9.9453545E3,6.742424E3,3.6991484E3,0E0,7.7067676E3,1.1206633E4,1.8401055E4,8.400928E3,1.3678652E4,3.6539023E3,1.3969164E4,2.957873E3,0E0,1.4820684E4,0E0,5.0969473E3,2.4014233E3,5.752547E3,0E0,0E0,7.997243E3,2.5769258E3,0E0,5.1684624E3,3.0846094E3,0E0,0E0,0E0,0E0,0E0,0E0,0E0,0E0,0E0,0E0,0E0,0E0,0E0,0E0,0E0,0E0,0E0,0E0],"parents":[2147483647,0,0,1,1,3,3,4,4,5,5,6,6,7,7,8,8,10,10,11,11,12,12,13,13,14,14,15,15,16,16,17,17,19,19,21,21,22,22,23,23,26,26,27,27,29,29,30,30],"right_children":[2,4,-1,6,8,10,12,14,16,-1,18,20,22,24,26,28,30,32,-1,34,-1,36,38,40,-1,-1,42,44,-1,46,48,-1,-1,-1,-1,-1,-1,-1,-1,-1,-1,-1,-1,-1,-1,-1,-1,-1,-1],"split_conditions":[2.88E2,1.06E2,1.1268369E2,2.6E1,1.44E2,9E0,1.464E2,1.631E2,1.172E2,-2.4352928E1,2.95E1,1.45E2,1.575E2,1.554E2,2.34E1,1.1E1,2E2,2.86E1,-2.7383213E1,2.73E1,-1.9608923E1,1.491E2,2E1,1.88E1,-1.0521461E1,3.7266907E1,2.9E1,1.45E2,4.0500736E0,1.4E2,1.77E1,-7.9667177E0,2.7975647E0,-2.186534E0,5.839103E0,2.3576807E1,7.532368E0,-8.32886E0,8.2207036E-1,2.2343336E1,4.873412E0,-1.7851319E0,1.5815216E1,1.0888746E1,3.3269447E1,-2.7314394E0,1.1114722E1,5.577173E0,3.1764551E1],"split_indices":[3,3,0,3,3,3,4,4,4,0,0,4,4,4,0,2,3,0,0,0,0,4,5,4,0,0,0,3,0,4,0,0,0,0,0,0,0,0,0,0,0,0,0,0,0,0,0,0,0],"split_type":[0,0,0,0,0,0,0,0,0,0,0,0,0,0,0,0,0,0,0,0,0,0,0,0,0,0,0,0,0,0,0,0,0,0,0,0,0,0,0,0,0,0,0,0,0,0,0,0,0],"sum_hessian":[2.85E2,2.84E2,1E0,2.3E2,5.4E1,3.6E1,1.94E2,3.3E1,2.1E1,3E0,3.3E1,1.76E2,1.8E1,2.4E1,9E0,7E0,1.4E1,3.2E1,1E0,1.74E2,2E0,9E0,9E0,2.2E1,2E0,1E0,8E0,6E0,1E0,1E1,4E0,3E1,2E0,1.51E2,2.3E1,3E0,6E0,4E0,5E0,1E0,2.1E1,4E0,4E0,2E0,4E0,3E0,7E0,1E0,3E0],"tree_param":{"num_deleted":"0","num_feature":"6","num_nodes":"49","size_leaf_vector":"1"}},{"base_weights":[3.906396E0,1.6796077E0,9.578116E1,-3.6840227E0,4.4200935E1,-2.0584509E1,2.7306697E0,5.4546352E1,2.2413046E1,9.315593E0,-2.7567263E1,-6.530236E-1,2.2555727E1,5.6333823E0,5.939859E1,-4.4964356E0,3.139209E1,-1.8002178E1,3.9205105E1,-4.228629E1,-1.4746574E1,3.6891334E0,-2.7860506E1,-4.7229567E0,4.469354E1,2.0215943E0,5.1342773E-1,3.784265E1,2.5292305E1,4.0735382E1,-1.1962159E0,-9.140657E0,3.8795717E0,2.3746199E1,-1.2133424E1,-1.6853867E1,-7.221457E0,-1.2437958E0,-1.1295981E1,-1.0224892E0,4.9949827E0,-2.1611602E0,-1.5578427E1,9.104432E0,-4.15753E0,1.7140518E1,-7.235266E0,1.3691203E1,-7.1848392E0,5.78711E-1,1.6004797E1],"categories":[],"categories_nodes":[],"categories_segments":[],"categories_sizes":[],"default_left":[0,0,0,0,0,0,0,0,0,0,0,0,0,0,0,0,0,0,0,0,0,0,0,0,0,0,0,0,0,0,0,0,0,0,0,0,0,0,0,0,0,0,0,0,0,0,0,0,0,0,0],"id":13,"left_children":[1,3,-1,5,7,9,11,13,15,17,19,21,23,25,27,-1,29,31,33,35,37,39,41,43,45,-1,-1,47,-1,49,-1,-1,-1,-1,-1,-1,-1,-1,-1,-1,-1,-1,-1,-1,-1,-1,-1,-1,-1,-1,-1],"loss_changes":[2.0030698E5,6.5162414E4,0E0,2.759271E4,5.9904062E3,1.4871756E4,1.2424884E4,4.6494727E3,4.500428E3,1.2136984E4,1.0132785E4,1.8886906E4,1.6516125E4,1.4717102E0,7.0114062E3,0E0,3.4680352E3,3.4791826E3,2.547482E4,5.227297E3,7.6142744E3,1.2751153E4,1.0563334E4,4.5856577E3,1.4219674E4,0E0,0E0,6.872795E3,0E0,3.8130957E3,0E0,0E0,0E0,0E0,0E0,0E0,0E0,0E0,0E0,0E0,0E0,0E0,0E0,0E0,0E0,0E0,0E0,0E0,0E0,0E0,0E0],"parents":[2147483647,0,0,1,1,3,3,4,4,5,5,6,6,7,7,8,8,9,9,10,10,11,11,12,12,13,13,14,14,16,16,17,17,18,18,19,19,20,20,21,21,22,22,23,23,24,24,27,27,29,29],"right_children":[2,4,-1,6,8,10,12,14,16,18,20,22,24,26,28,-1,30,32,34,36,38,40,42,44,46,-1,-1,48,-1,50,-1,-1,-1,-1,-1,-1,-1,-1,-1,-1,-1,-1,-1,-1,-1,-1,-1,-1,-1,-1,-1],"split_conditions":[2.88E2,1.29E2,9.578116E1,3.8E1,1.512E2,9E0,1.464E2,3.06E1,2.33E1,2.6E1,2.11E1,1.232E2,4E0,2.13E1,2E1,-4.4964356E0,1.2E1,4E0,2.89E1,8E0,1.14E2,9E0,4.4E1,1.505E2,3.16E1,2.0215943E0,5.1342773E-1,1.96E1,2.5292305E1,4E0,-1.1962159E0,-9.140657E0,3.8795717E0,2.3746199E1,-1.2133424E1,-1.6853867E1,-7.221457E0,-1.2437958E0,-1.1295981E1,-1.0224892E0,4.9949827E0,-2.1611602E0,-1.5578427E1,9.104432E0,-4.15753E0,1.7140518E1,-7.235266E0,1.3691203E1,-7.1848392E0,5.78711E-1,1.6004797E1],"split_indices":[3,3,0,3,4,5,4,4,0,3,0,4,2,0,0,0,2,1,0,2,4,2,5,4,0,0,0,0,0,2,0,0,0,0,0,0,0,0,0,0,0,0,0,0,0,0,0,0,0,0,0],"split_type":[0,0,0,0,0,0,0,0,0,0,0,0,0,0,0,0,0,0,0,0,0,0,0,0,0,0,0,0,0,0,0,0,0,0,0,0,0,0,0,0,0,0,0,0,0,0,0,0,0,0,0],"sum_hessian":[2.85E2,2.84E2,1E0,2.53E2,3.1E1,6.9E1,1.84E2,2E1,1.1E1,1.3E1,5.6E1,1.58E2,2.6E1,2E0,1.8E1,2E0,9E0,7E0,6E0,2.5E1,3.1E1,1.37E2,2.1E1,1.2E1,1.4E1,1E0,1E0,1.1E1,7E0,7E0,2E0,5E0,2E0,4E0,2E0,1.3E1,1.2E1,2.2E1,9E0,8.9E1,4.8E1,1.2E1,9E0,2E0,1E1,1.2E1,2E0,1E1,1E0,2E0,5E0],"tree_param":{"num_deleted":"0","num_feature":"6","num_nodes":"51","size_leaf_vector":"1"}},{"base_weights":[3.1254637E0,1.23201E0,8.141397E1,-6.2905874E0,1.93074E1,-3.7141068E1,-4.4903483E0,1.2894678E1,3.679349E1,-4.976752E1,-2.6028976E0,-2.8991418E0,-2.307331E1,-8.766846E0,1.47546425E1,2.8626429E1,2.3692823E1,-1.8798761E1,-6.3620615E0,1.1050163E1,-8.407935E0,-3.9268508E0,5.8359497E1,-4.3924408E1,6.6194916E-1,3.1370922E1,8.149501E0,7.1686525E0,4.5531094E1,-2.0931406E0,3.5326583E0,2.3714705E1,2.5470705E0,-3.5578897E0,-2.1907284E1,4.8749084E0,-5.6964664E0,6.1948395E0,2.2356373E1,-1.1120611E1,4.039544E0,-3.1322756E0,4.862151E0,-2.9602054E-1,1.679341E1],"categories":[],"categories_nodes":[],"categories_segments":[],"categories_sizes":[],"default_left":[0,0,0,0,0,0,0,0,0,0,0,0,0,0,0,0,0,0,0,0,0,0,0,0,0,0,0,0,0,0,0,0,0,0,0,0,0,0,0,0,0,0,0,0,0],"id":14,"left_children":[1,3,-1,5,7,9,11,13,15,17,19,21,23,-1,25,27,-1,-1,-1,-1,-1,29,31,33,35,37,39,41,43,-1,-1,-1,-1,-1,-1,-1,-1,-1,-1,-1,-1,-1,-1,-1,-1],"loss_changes":[1.4493288E5,3.8874008E4,0E0,1.1051947E4,8.944771E3,4.667501E3,5.61042E3,5.3664053E3,5.318367E3,1.6174434E3,5.0428145E3,1.1435347E4,7.4526694E3,0E0,6.4392695E3,6.928334E3,0E0,0E0,0E0,0E0,0E0,8.511982E3,2.424167E3,6.5986045E3,2.7589678E3,6.325959E3,1.1315514E4,1.760862E3,5.4008906E3,0E0,0E0,0E0,0E0,0E0,0E0,0E0,0E0,0E0,0E0,0E0,0E0,0E0,0E0,0E0,0E0],"parents":[2147483647,0,0,1,1,3,3,4,4,5,5,6,6,7,7,8,8,9,9,10,10,11,11,12,12,14,14,15,15,21,21,22,22,23,23,24,24,25,25,26,26,27,27,28,28],"right_children":[2,4,-1,6,8,10,12,14,16,18,20,22,24,-1,26,28,-1,-1,-1,-1,-1,30,32,34,36,38,40,42,44,-1,-1,-1,-1,-1,-1,-1,-1,-1,-1,-1,-1,-1,-1,-1,-1],"split_conditions":[2.88E2,8.9E1,8.141397E1,1.4E1,1.44E2,2.51E1,2.89E1,1.25E1,3.06E1,1.1E1,2.67E1,2.88E1,2.99E1,-8.766846E0,1.85E1,4.4E1,2.3692823E1,-1.8798761E1,-6.3620615E0,1.1050163E1,-8.407935E0,4E1,5E0,5E0,6E0,1.83E1,2.14E1,4E0,6E0,-2.0931406E0,3.5326583E0,2.3714705E1,2.5470705E0,-3.5578897E0,-2.1907284E1,4.8749084E0,-5.6964664E0,6.1948395E0,2.2356373E1,-1.1120611E1,4.039544E0,-3.1322756E0,4.862151E0,-2.9602054E-1,1.679341E1],"split_indices":[3,3,0,3,3,0,0,0,0,3,0,0,0,0,0,5,0,0,0,0,0,5,1,2,1,0,0,2,1,0,0,0,0,0,0,0,0,0,0,0,0,0,0,0,0],"split_type":[0,0,0,0,0,0,0,0,0,0,0,0,0,0,0,0,0,0,0,0,0,0,0,0,0,0,0,0,0,0,0,0,0,0,0,0,0,0,0,0,0,0,0,0,0],"sum_hessian":[2.85E2,2.84E2,1E0,2.01E2,8.3E1,1E1,1.91E2,6.2E1,2.1E1,7E0,3E0,1.77E2,1.4E1,2E0,6E1,1.9E1,2E0,4E0,3E0,1E0,2E0,1.75E2,2E0,7E0,7E0,1.6E1,4.4E1,9E0,1E1,1.47E2,2.8E1,1E0,1E0,4E0,3E0,4E0,3E0,1.4E1,2E0,4E0,4E1,3E0,6E0,2E0,8E0],"tree_param":{"num_deleted":"0","num_feature":"6","num_nodes":"45","size_leaf_vector":"1"}},{"base_weights":[2.5896842E0,9.8001397E-1,6.920186E1,-5.4976525E0,1.2655608E1,-3.8211956E0,-2.7255573E1,6.7682858E0,2.4231186E1,-6.9502444E0,1.4016933E1,-2.0936028E1,-7.5175414E0,9.346739E0,-2.186326E1,4.7091908E1,1.2743724E1,-3.2509122E0,-5.2391903E1,2.5687637E1,-5.659384E1,-1.50432E1,9.032007E0,1.7021768E0,2.3863531E1,-1.0405994E1,2.5223389E0,1.8212076E0,1.7084913E1,4.0767946E0,4.4862694E1,-4.6796694E0,7.6907396E-1,-2.1632439E1,-4.293245E0,-4.6652007E0,1.5992622E1,-3.7365236E0,-2.014652E1,1.0359925E0,-7.4601016E0,2.1836371E0,-1.6346851E1,1.1232701E1,1.1474195E0,2.2597413E0,-1.1246887E0,9.8906255E-1,-1.6951905E-1,-6.9912255E-1,9.086463E0,1.678711E-1,1.6739576E1],"categories":[],"categories_nodes":[],"categories_segments":[],"categories_sizes":[],"default_left":[0,0,0,0,0,0,0,0,0,0,0,0,0,0,0,0,0,0,0,0,0,0,0,0,0,0,0,0,0,0,0,0,0,0,0,0,0,0,0,0,0,0,0,0,0,0,0,0,0,0,0,0,0],"id":15,"left_children":[1,3,-1,5,7,9,11,13,15,17,19,-1,21,23,25,27,29,31,33,35,37,39,-1,41,43,-1,45,47,-1,49,51,-1,-1,-1,-1,-1,-1,-1,-1,-1,-1,-1,-1,-1,-1,-1,-1,-1,-1,-1,-1,-1,-1],"loss_changes":[1.047756E5,2.16243E4,0E0,6.6074756E3,6.78721E3,9.697839E3,1.0388641E4,5.2982812E3,8.328672E3,2.4540938E4,2.2879773E4,0E0,3.2843716E3,7.061749E3,1.9637268E3,4.80525E3,6.498052E3,9.876214E3,7.227037E3,2.7027078E4,1.0282168E3,1.7212281E3,0E0,1.3871065E4,5.8430576E3,0E0,1.22499084E2,1.24269705E1,0E0,3.429421E3,2.391247E3,0E0,0E0,0E0,0E0,0E0,0E0,0E0,0E0,0E0,0E0,0E0,0E0,0E0,0E0,0E0,0E0,0E0,0E0,0E0,0E0,0E0,0E0],"parents":[2147483647,0,0,1,1,3,3,4,4,5,5,6,6,7,7,8,8,9,9,10,10,12,12,13,13,14,14,15,15,16,16,17,17,18,18,19,19,20,20,21,21,23,23,24,24,26,26,27,27,29,29,30,30],"right_children":[2,4,-1,6,8,10,12,14,16,18,20,-1,22,24,26,28,30,32,34,36,38,40,-1,42,44,-1,46,48,-1,50,52,-1,-1,-1,-1,-1,-1,-1,-1,-1,-1,-1,-1,-1,-1,-1,-1,-1,-1,-1,-1,-1,-1],"split_conditions":[2.88E2,7.7E1,6.920186E1,4.9E1,1.27E2,3.6E1,5.5E1,3.06E1,1.188E2,3.2E1,2.85E1,-2.0936028E1,3.12E1,9E0,6E0,3.06E1,2E2,3.2E1,5.1E1,1.87E1,2.9E1,2.08E1,9.032007E0,8E0,1.098E2,-1.0405994E1,3.16E1,2.13E1,1.7084913E1,3.06E1,1.77E1,-4.6796694E0,7.6907396E-1,-2.1632439E1,-4.293245E0,-4.6652007E0,1.5992622E1,-3.7365236E0,-2.014652E1,1.0359925E0,-7.4601016E0,2.1836371E0,-1.6346851E1,1.1232701E1,1.1474195E0,2.2597413E0,-1.1246887E0,9.8906255E-1,-1.6951905E-1,-6.9912255E-1,9.086463E0,1.678711E-1,1.6739576E1],"split_indices":[3,3,0,5,3,5,5,0,4,5,0,0,0,2,1,4,3,3,3,0,0,0,0,2,4,0,0,0,0,0,0,0,0,0,0,0,0,0,0,0,0,0,0,0,0,0,0,0,0,0,0,0,0],"split_type":[0,0,0,0,0,0,0,0,0,0,0,0,0,0,0,0,0,0,0,0,0,0,0,0,0,0,0,0,0,0,0,0,0,0,0,0,0,0,0,0,0,0,0,0,0,0,0,0,0,0,0,0,0],"sum_hessian":[2.85E2,2.84E2,1E0,1.83E2,1.01E2,1.71E2,1.2E1,6.8E1,3.3E1,1.46E2,2.5E1,3E0,9E0,6.3E1,5E0,1E1,2.3E1,1.36E2,1E1,2.2E1,3E0,8E0,1E0,4.2E1,2.1E1,3E0,2E0,2E0,8E0,1.9E1,4E0,4.3E1,9.3E1,6E0,4E0,9E0,1.3E1,1E0,2E0,3E0,5E0,3.9E1,3E0,1.2E1,9E0,1E0,1E0,1E0,1E0,1.6E1,3E0,1E0,3E0],"tree_param":{"num_deleted":"0","num_feature":"6","num_nodes":"53","size_leaf_vector":"1"}},{"base_weights":[1.9548463E0,5.8576137E-1,5.882161E1,-2.7912636E0,1.47586155E1,-2.919563E1,-1.9573889E0,4.7901E1,1.1925383E1,-1.3164805E1,5.014669E0,-2.5760445E1,-9.6114516E-1,9.676392E-1,1.8515308E1,-1.2996652E1,1.5458618E1,1.0094586E1,-7.8379855E0,-2.1665297E1,9.504436E0,1.752596E1,-3.2432554E0,-1.0751953E1,3.3085938E0,7.8315954E0,2.588483E1,3.3505228E0,1.7768556E-1,-1.6215016E0,9.493463E0,-2.4560866E0,1.0826868E0,-3.471863E-1,3.175818E0,1.0142198E1,6.2810063E-1,1.4627125E1,1.4454013E0],"categories":[],"categories_nodes":[],"categories_segments":[],"categories_sizes":[],"default_left":[0,0,0,0,0,0,0,0,0,0,0,0,0,0,0,0,0,0,0,0,0,0,0,0,0,0,0,0,0,0,0,0,0,0,0,0,0,0,0],"id":16,"left_children":[1,3,-1,5,7,9,11,13,15,-1,17,19,21,-1,-1,23,25,-1,-1,-1,27,29,31,-1,33,35,37,-1,-1,-1,-1,-1,-1,-1,-1,-1,-1,-1,-1],"loss_changes":[7.5893336E4,1.3681889E4,0E0,5.028995E3,4.5932686E3,3.7371958E3,5.31081E3,2.270004E3,4.7797925E3,0E0,3.554219E3,1.5431158E4,9.211986E3,0E0,0E0,2.7258262E3,3.4552441E3,0E0,0E0,0E0,8.236255E1,7.9412876E3,6.6013496E3,0E0,1.7475261E2,4.10253E3,8.920157E3,0E0,0E0,0E0,0E0,0E0,0E0,0E0,0E0,0E0,0E0,0E0,0E0],"parents":[2147483647,0,0,1,1,3,3,4,4,5,5,6,6,7,7,8,8,10,10,11,11,12,12,15,15,16,16,20,20,21,21,22,22,24,24,25,25,26,26],"right_children":[2,4,-1,6,8,10,12,14,16,-1,18,20,22,-1,-1,24,26,-1,-1,-1,28,30,32,-1,34,36,38,-1,-1,-1,-1,-1,-1,-1,-1,-1,-1,-1,-1],"split_conditions":[2.88E2,1.06E2,5.882161E1,1.1E1,5E0,2.17E1,3E0,2.81E1,4E0,-1.3164805E1,2.67E1,2.33E1,2.8E1,9.676392E-1,1.8515308E1,2.31E1,1.4E2,1.0094586E1,-7.8379855E0,-2.1665297E1,2.56E1,1.89E1,1.025E2,-1.0751953E1,2.66E1,1.09E2,2.59E1,3.3505228E0,1.7768556E-1,-1.6215016E0,9.493463E0,-2.4560866E0,1.0826868E0,-3.471863E-1,3.175818E0,1.0142198E1,6.2810063E-1,1.4627125E1,1.4454013E0],"split_indices":[3,3,0,3,5,0,5,0,2,0,0,4,4,0,0,0,4,0,0,0,0,0,4,0,0,3,0,0,0,0,0,0,0,0,0,0,0,0,0],"split_type":[0,0,0,0,0,0,0,0,0,0,0,0,0,0,0,0,0,0,0,0,0,0,0,0,0,0,0,0,0,0,0,0,0,0,0,0,0,0,0],"sum_hessian":[2.85E2,2.84E2,1E0,2.3E2,5.4E1,6E0,2.24E2,3E0,5.1E1,4E0,2E0,8E0,2.16E2,1E0,2E0,6E0,4.5E1,1E0,1E0,3E0,5E0,2.3E1,1.93E2,2E0,4E0,2.7E1,1.8E1,4E0,1E0,9E0,1.4E1,1.12E2,8.1E1,3E0,1E0,4E0,2.3E1,8E0,1E1],"tree_param":{"num_deleted":"0","num_feature":"6","num_nodes":"39","size_leaf_vector":"1"}},{"base_weights":[1.6295038E0,4.6566966E-1,4.999834E1,-1.3726565E0,1.5042831E1,-2.956614E0,1.2053824E1,9.70234E0,4.1941017E1,-7.158164E-1,-1.5721289E1,-6.487136E0,2.7319067E1,2.0380318E1,-8.652743E0,5.793164E1,-3.303223E0,-3.4403577E0,1.1413139E1,-3.1104736E0,-3.5853336E1,2.3967896E1,-1.4203314E1,5.906787E1,5.5378785E0,-2.7473145E0,2.7184448E1,-7.8404484E0,1.1698914E0,2.0846338E1,3.4894776E0,-7.4604385E-2,-1.9215338E1,1.3861123E1,-5.3149797E-2,5.312769E0,-4.881717E0,-1.5136336E1,-3.1228883E0,1.8572755E0,8.928278E0,-8.410538E0,-1.6535981E0,3.3569093E0,2.406286E1,8.586072E0,-1.1430726E0,-3.7794192E0,2.405762E0,1.5424458E1,4.7706237E0,3.6747804E0,-6.4136477E0],"categories":[],"categories_nodes":[],"categories_segments":[],"categories_sizes":[],"default_left":[0,0,0,0,0,0,0,0,0,0,0,0,0,0,0,0,0,0,0,0,0,0,0,0,0,0,0,0,0,0,0,0,0,0,0,0,0,0,0,0,0,0,0,0,0,0,0,0,0,0,0,0,0],"id":17,"left_children":[1,3,-1,5,7,9,11,13,15,17,19,21,23,25,27,29,-1,31,33,35,37,39,41,43,45,47,49,-1,51,-1,-1,-1,-1,-1,-1,-1,-1,-1,-1,-1,-1,-1,-1,-1,-1,-1,-1,-1,-1,-1,-1,-1,-1],"loss_changes":[5.4854258E4,7.657958E3,0E0,5.43745E3,4.1898584E3,6.510242E3,7.8190938E3,5.66421E3,4.8715283E3,6.4832046E3,8.520453E3,3.395377E3,1.004579E4,2.9072266E3,1.9194963E3,1.3319482E3,0E0,3.0936062E4,1.45246E4,6.31677E3,4.304373E3,1.24700195E2,1.1678545E3,5.175826E3,2.266817E3,6.313178E2,3.009666E3,0E0,2.2604805E3,0E0,0E0,0E0,0E0,0E0,0E0,0E0,0E0,0E0,0E0,0E0,0E0,0E0,0E0,0E0,0E0,0E0,0E0,0E0,0E0,0E0,0E0,0E0,0E0],"parents":[2147483647,0,0,1,1,3,3,4,4,5,5,6,6,7,7,8,8,9,9,10,10,11,11,12,12,13,13,14,14,15,15,17,17,18,18,19,19,20,20,21,21,22,22,23,23,24,24,25,25,26,26,28,28],"right_children":[2,4,-1,6,8,10,12,14,16,18,20,22,24,26,28,30,-1,32,34,36,38,40,42,44,46,48,50,-1,52,-1,-1,-1,-1,-1,-1,-1,-1,-1,-1,-1,-1,-1,-1,-1,-1,-1,-1,-1,-1,-1,-1,-1,-1],"split_conditions":[2.88E2,1.29E2,4.999834E1,1.464E2,3.06E1,1.183E2,4E0,2.19E1,3.26E1,1.025E2,8E0,1.505E2,2.59E1,6E0,2.33E1,1.46E2,-3.303223E0,9.72E1,1.05E2,2.3E1,5.6E1,2.14E1,7E0,9.5E1,1.561E2,1.84E1,1.188E2,-7.8404484E0,1E1,2.0846338E1,3.4894776E0,-7.4604385E-2,-1.9215338E1,1.3861123E1,-5.3149797E-2,5.312769E0,-4.881717E0,-1.5136336E1,-3.1228883E0,1.8572755E0,8.928278E0,-8.410538E0,-1.6535981E0,3.3569093E0,2.406286E1,8.586072E0,-1.1430726E0,-3.7794192E0,2.405762E0,1.5424458E1,4.7706237E0,3.6747804E0,-6.4136477E0],"split_indices":[3,3,0,4,0,4,2,0,0,4,2,4,0,1,0,3,0,4,4,0,5,0,1,3,4,0,4,0,2,0,0,0,0,0,0,0,0,0,0,0,0,0,0,0,0,0,0,0,0,0,0,0,0],"split_type":[0,0,0,0,0,0,0,0,0,0,0,0,0,0,0,0,0,0,0,0,0,0,0,0,0,0,0,0,0,0,0,0,0,0,0,0,0,0,0,0,0,0,0,0,0,0,0,0,0,0,0,0,0],"sum_hessian":[2.85E2,2.84E2,1E0,2.53E2,3.1E1,2.27E2,2.6E1,2.7E1,4E0,1.94E2,3.3E1,1.2E1,1.4E1,1.7E1,1E1,3E0,1E0,1.59E2,3.5E1,2.1E1,1.2E1,2E0,1E1,5E0,9E0,4E0,1.3E1,3E0,7E0,2E0,1E0,1.52E2,7E0,8E0,2.7E1,8E0,1.3E1,7E0,5E0,1E0,1E0,3E0,7E0,2E0,3E0,2E0,7E0,2E0,2E0,3E0,1E1,5E0,2E0],"tree_param":{"num_deleted":"0","num_feature":"6","num_nodes":"53","size_leaf_vector":"1"}},{"base_weights":[1.4607522E0,4.717593E-1,4.249856E1,-1.5505393E0,8.956836E0,-1.9981228E1,-7.9974675E-1,1.39541025E1,7.399975E0,-1.9838903E1,2.6511405E0,8.649415E0,-3.105099E0,3.3227295E1,5.229205E0,-3.7892945E0,7.303324E0,1.2895193E1,-1.2068481E1,-1.0114327E1,1.4192642E-1,8.3371586E-1,1.2735108E1,-1.615686E1,8.998734E0,2.5643115E0,1.6221315E-1,2.604229E0,1.7329542E1,-1.504806E1,2.696637E0,-4.566435E0,3.0917497E0,1.0966026E1,-7.0468843E-1,2.480957E-1,-6.586792E0,1.3556067E1,1.5746107E0],"categories":[],"categories_nodes":[],"categories_segments":[],"categories_sizes":[],"default_left":[0,0,0,0,0,0,0,0,0,0,0,0,0,0,0,0,0,0,0,0,0,0,0,0,0,0,0,0,0,0,0,0,0,0,0,0,0,0,0],"id":18,"left_children":[1,3,-1,5,7,9,11,-1,13,-1,15,17,19,21,23,-1,25,27,29,31,33,-1,-1,35,37,-1,-1,-1,-1,-1,-1,-1,-1,-1,-1,-1,-1,-1,-1],"loss_changes":[3.9589332E4,4.904305E3,0E0,3.1805112E3,2.8716934E3,9.575358E3,4.8846104E3,0E0,2.8537664E3,0E0,5.899148E2,4.026023E3,4.098081E3,1.0053325E3,4.256778E3,0E0,4.586978E1,6.495299E3,6.86774E3,6.1013003E3,1.1332284E4,0E0,0E0,8.060874E2,5.733926E3,0E0,0E0,0E0,0E0,0E0,0E0,0E0,0E0,0E0,0E0,0E0,0E0,0E0,0E0],"parents":[2147483647,0,0,1,1,3,3,4,4,5,5,6,6,8,8,10,10,11,11,12,12,13,13,14,14,16,16,17,17,18,18,19,19,20,20,23,23,24,24],"right_children":[2,4,-1,6,8,10,12,-1,14,-1,16,18,20,22,24,-1,26,28,30,32,34,-1,-1,36,38,-1,-1,-1,-1,-1,-1,-1,-1,-1,-1,-1,-1,-1,-1],"split_conditions":[2.88E2,1.06E2,4.249856E1,3E0,1.88E1,7.2E1,9E0,1.39541025E1,5E0,-1.9838903E1,2.23E1,1.156E2,3.8E1,2.81E1,7.88E1,-3.7892945E0,2.56E1,9.1E1,1.228E2,1.092E2,4.4E1,8.3371586E-1,1.2735108E1,2.19E1,9.15E1,2.5643115E0,1.6221315E-1,2.604229E0,1.7329542E1,-1.504806E1,2.696637E0,-4.566435E0,3.0917497E0,1.0966026E1,-7.0468843E-1,2.480957E-1,-6.586792E0,1.3556067E1,1.5746107E0],"split_indices":[3,3,0,5,4,3,5,0,5,0,4,4,3,0,4,0,0,4,4,4,3,0,0,4,4,0,0,0,0,0,0,0,0,0,0,0,0,0,0],"split_type":[0,0,0,0,0,0,0,0,0,0,0,0,0,0,0,0,0,0,0,0,0,0,0,0,0,0,0,0,0,0,0,0,0,0,0,0,0,0,0],"sum_hessian":[2.85E2,2.84E2,1E0,2.3E2,5.4E1,8E0,2.22E2,1E0,5.3E1,2E0,6E0,4.3E1,1.79E2,3E0,5E1,1E0,5E0,3.6E1,7E0,5.6E1,1.23E2,1E0,2E0,7E0,4.3E1,4E0,1E0,3.4E1,2E0,2E0,5E0,4.5E1,1.1E1,7E0,1.16E2,2E0,5E0,3E0,4E1],"tree_param":{"num_deleted":"0","num_feature":"6","num_nodes":"39","size_leaf_vector":"1"}},{"base_weights":[1.282228E0,4.4172636E-1,3.612378E1,-2.1526091E-1,2.0613255E1,-1.4136091E0,1.2476227E1,3.6277466E1,-8.036377E0,-2.9691164E0,6.9825835E0,1.2984888E1,9.254936E0,-8.841797E-1,1.341356E1,4.16792E0,-5.993164E0,-6.807972E-1,-2.3012972E1,4.6430035E1,3.684559E0,-3.8221843E0,1.30998125E1,-1.1534141E0,1.6121583E0,-1.5941529E0,-1.0457238E1,1.854994E1,2.3435762E0,-4.8177147E0,2.3664992E0,1.2294617E0,-3.9325929E0,4.8106937E0,-2.0773683E0],"categories":[],"categories_nodes":[],"categories_segments":[],"categories_sizes":[],"default_left":[0,0,0,0,0,0,0,0,0,0,0,0,0,0,0,0,0,0,0,0,0,0,0,0,0,0,0,0,0,0,0,0,0,0,0],"id":19,"left_children":[1,3,-1,5,7,9,11,13,15,17,19,-1,21,-1,-1,-1,-1,23,25,27,29,31,33,-1,-1,-1,-1,-1,-1,-1,-1,-1,-1,-1,-1],"loss_changes":[2.8583781E4,3.7813818E3,0E0,4.23048E3,4.330505E3,3.3380586E3,1.9811174E3,2.1168003E3,1.3249684E3,9.845683E3,5.032872E3,0E0,1.2065079E3,0E0,0E0,0E0,0E0,3.7370083E3,4.426789E3,1.30148E3,3.280588E3,4.9503613E2,1.1692275E3,0E0,0E0,0E0,0E0,0E0,0E0,0E0,0E0,0E0,0E0,0E0,0E0],"parents":[2147483647,0,0,1,1,3,3,4,4,5,5,6,6,7,7,8,8,9,9,10,10,12,12,17,17,18,18,19,19,20,20,21,21,22,22],"right_children":[2,4,-1,6,8,10,12,14,16,18,20,-1,22,-1,-1,-1,-1,24,26,28,30,32,34,-1,-1,-1,-1,-1,-1,-1,-1,-1,-1,-1,-1],"split_conditions":[2.88E2,7.7E1,3.612378E1,1.36E2,1.33E2,1.335E2,2E0,9.4E1,2.16E1,1.183E2,1.375E2,1.2984888E1,2.2E1,-8.841797E-1,1.341356E1,4.16792E0,-5.993164E0,9E0,2.11E1,2.3E1,2.33E1,1.5E1,1.1E1,-1.1534141E0,1.6121583E0,-1.5941529E0,-1.0457238E1,1.854994E1,2.3435762E0,-4.8177147E0,2.3664992E0,1.2294617E0,-3.9325929E0,4.8106937E0,-2.0773683E0],"split_indices":[3,5,0,3,3,4,2,3,0,4,4,0,5,0,0,0,0,2,0,0,0,5,2,0,0,0,0,0,0,0,0,0,0,0,0],"split_type":[0,0,0,0,0,0,0,0,0,0,0,0,0,0,0,0,0,0,0,0,0,0,0,0,0,0,0,0,0,0,0,0,0,0,0],"sum_hessian":[2.85E2,2.84E2,1E0,2.76E2,8E0,2.53E2,2.3E1,5E0,3E0,2.14E2,3.9E1,1E0,2.2E1,1E0,4E0,1E0,2E0,1.93E2,2.1E1,2E0,3.7E1,5E0,1.7E1,1.27E2,6.6E1,9E0,1.2E1,1E0,1E0,6E0,3.1E1,3E0,2E0,1.5E1,2E0],"tree_param":{"num_deleted":"0","num_feature":"6","num_nodes":"35","size_leaf_vector":"1"}},{"base_weights":[1.1307621E0,4.1647825E-1,3.070525E1,-2.609343E1,7.9102844E-1,-1.0558259E1,1.8132935E-1,4.251931E0,-1.3493632E0,-9.0388995E-1,8.239267E0,-8.980861E0,1.6897179E0,9.773584E0,-1.6341034E1,4.679044E0,1.7178726E1,-2.7800221E0,-5.3990337E1,1.5537054E1,-1.8916728E0,1.0009489E1,6.505984E-1,-1.667845E1,-2.66727E0,3.1203637E0,-5.809595E0,8.407328E0,-6.955863E-1,7.8982234E-2,-2.050276E1,-1.7991703E1,-3.6120484E0,1.1744448E1,1.4333391E0,-1.4706943E1,6.418921E-1],"categories":[],"categories_nodes":[],"categories_segments":[],"categories_sizes":[],"default_left":[0,0,0,0,0,0,0,0,0,0,0,0,0,0,0,0,0,0,0,0,0,0,0,0,0,0,0,0,0,0,0,0,0,0,0,0,0],"id":20,"left_children":[1,3,-1,5,7,-1,-1,9,11,13,15,17,19,21,23,25,27,29,31,33,35,-1,-1,-1,-1,-1,-1,-1,-1,-1,-1,-1,-1,-1,-1,-1,-1],"loss_changes":[2.0635133E4,2.8504888E3,0E0,9.9315625E2,2.0947053E3,0E0,0E0,2.2277104E3,4.0739043E3,8.071537E3,1.8610347E3,1.3804729E4,6.2780737E3,5.130551E3,5.354633E3,6.3927856E3,3.6598384E3,8.996669E3,7.8360156E2,6.4179453E3,1.9295062E4,0E0,0E0,0E0,0E0,0E0,0E0,0E0,0E0,0E0,0E0,0E0,0E0,0E0,0E0,0E0,0E0],"parents":[2147483647,0,0,1,1,3,3,4,4,7,7,8,8,9,9,10,10,11,11,12,12,13,13,14,14,15,15,16,16,17,17,18,18,19,19,20,20],"right_children":[2,4,-1,6,8,-1,-1,10,12,14,16,18,20,22,24,26,28,30,32,34,36,-1,-1,-1,-1,-1,-1,-1,-1,-1,-1,-1,-1,-1,-1,-1,-1],"split_conditions":[2.88E2,9E0,3.070525E1,4E0,1.6E1,-1.0558259E1,1.8132935E-1,2.27E1,8.01E1,2.06E1,1.2E1,7.4E1,9.72E1,5E0,3.1E1,1.156E2,2.76E1,9.1E1,6.8E1,4.1E1,1.025E2,1.0009489E1,6.505984E-1,-1.667845E1,-2.66727E0,3.1203637E0,-5.809595E0,8.407328E0,-6.955863E-1,7.8982234E-2,-2.050276E1,-1.7991703E1,-3.6120484E0,1.1744448E1,1.4333391E0,-1.4706943E1,6.418921E-1],"split_indices":[3,3,0,1,5,0,0,0,4,0,5,4,4,5,3,4,0,3,3,3,4,0,0,0,0,0,0,0,0,0,0,0,0,0,0,0,0],"split_type":[0,0,0,0,0,0,0,0,0,0,0,0,0,0,0,0,0,0,0,0,0,0,0,0,0,0,0,0,0,0,0,0,0,0,0,0,0],"sum_hessian":[2.85E2,2.84E2,1E0,3E0,2.81E2,2E0,1E0,1.07E2,1.74E2,4.7E1,6E1,4.9E1,1.25E2,2.8E1,1.9E1,4.4E1,1.6E1,4.4E1,5E0,2.5E1,1E2,6E0,2.2E1,2E0,1.7E1,3.6E1,8E0,1E1,6E0,4.3E1,1E0,4E0,1E0,7E0,1.8E1,7E0,9.3E1],"tree_param":{"num_deleted":"0","num_feature":"6","num_nodes":"37","size_leaf_vector":"1"}},{"base_weights":[6.997561E-1,9.1697074E-2,2.609949E1,-3.9458194E-1,1.5048096E1,-1.2579197E0,8.75885E0,1.0620136E1,-1.0281576E0,-1.7336968E-2,-1.0520359E1,1.0569068E1,6.076172E0,1.0765015E1,-4.9229007E0,9.37633E-1,-1.2550234E1,-3.4645447E1,-4.309524E0,7.924805E0,3.9509056E0,-8.7792975E-1,7.7759037E0,-3.413559E-1,4.902523E0,-1.3836865E-1,-9.786511E0,-1.1792059E1,-1.7007569E0,5.3986816E0,-2.824516E0,-2.040738E0,2.826792E0],"categories":[],"categories_nodes":[],"categories_segments":[],"categories_sizes":[],"default_left":[0,0,0,0,0,0,0,0,0,0,0,0,0,0,0,0,0,0,0,0,0,0,0,0,0,0,0,0,0,0,0,0,0],"id":21,"left_children":[1,3,-1,5,7,9,11,-1,13,15,17,-1,19,21,-1,23,25,27,29,-1,31,-1,-1,-1,-1,-1,-1,-1,-1,-1,-1,-1,-1],"loss_changes":[1.499976E4,2.0787378E3,0E0,2.2000115E3,2.981104E3,2.9184866E3,1.4902755E3,0E0,1.2650311E3,2.7046892E3,4.3458027E3,0E0,8.8986725E2,9.0580927E2,0E0,6.7325073E3,3.867259E3,5.875835E2,3.0164175E3,0E0,1.3585675E3,0E0,0E0,0E0,0E0,0E0,0E0,0E0,0E0,0E0,0E0,0E0,0E0],"parents":[2147483647,0,0,1,1,3,3,4,4,5,5,6,6,8,8,9,9,10,10,12,12,13,13,15,15,16,16,17,17,18,18,20,20],"right_children":[2,4,-1,6,8,10,12,-1,14,16,18,-1,20,22,-1,24,26,28,30,-1,32,-1,-1,-1,-1,-1,-1,-1,-1,-1,-1,-1,-1],"split_conditions":[2.88E2,7.7E1,2.609949E1,1.36E2,2.16E1,4.9E1,2E0,1.0620136E1,1.33E2,2.89E1,1.69E1,1.0569068E1,1.33E1,3.16E1,-4.9229007E0,4E1,5E0,1.1E1,1E1,7.924805E0,2E1,-8.7792975E-1,7.7759037E0,-3.413559E-1,4.902523E0,-1.3836865E-1,-9.786511E0,-1.1792059E1,-1.7007569E0,5.3986816E0,-2.824516E0,-2.040738E0,2.826792E0],"split_indices":[3,5,0,3,0,5,2,0,3,0,0,0,0,0,0,5,2,2,2,0,0,0,0,0,0,0,0,0,0,0,0,0,0],"split_type":[0,0,0,0,0,0,0,0,0,0,0,0,0,0,0,0,0,0,0,0,0,0,0,0,0,0,0,0,0,0,0,0,0],"sum_hessian":[2.85E2,2.84E2,1E0,2.76E2,8E0,2.53E2,2.3E1,3E0,5E0,2.24E2,2.9E1,1E0,2.2E1,3E0,2E0,2.09E2,1.5E1,5E0,2.4E1,1E0,2.1E1,2E0,1E0,1.85E2,2.4E1,1E1,5E0,4E0,1E0,4E0,2E1,7E0,1.4E1],"tree_param":{"num_deleted":"0","num_feature":"6","num_nodes":"33","size_leaf_vector":"1"}},{"base_weights":[6.355849E-1,1.1887828E-1,2.2184547E1,-1.168397E1,7.259408E-1,-2.00244E1,2.774002E0,1.8836983E1,1.0576919E-1,-8.435148E0,-7.9267607E0,9.0327215E0,-8.714826E0,3.4112965E1,-2.0639649E-1,6.119885E0,-1.1913372E0,-2.7111742E-1,-2.8369768E0,-2.170578E0,-5.2337723E0,1.6170869E0,3.994606E1,3.1779833E0,-6.5107636E0,5.779947E-1,2.4204435E1,-2.7940153E1,2.2899114E-1,-2.5834947E0,8.5409856E-1,1.3997943E1,2.9707215E0,1.0640107E0,-1.0274878E1,1.4185803E1,-8.7336427E-1,-2.5202637E0,-1.0265182E1,8.701509E0,-1.4322793E-1],"categories":[],"categories_nodes":[],"categories_segments":[],"categories_sizes":[],"default_left":[0,0,0,0,0,0,0,0,0,0,0,0,0,0,0,0,0,0,0,0,0,0,0,0,0,0,0,0,0,0,0,0,0,0,0,0,0,0,0,0,0],"id":22,"left_children":[1,3,-1,5,7,9,11,13,15,-1,17,-1,19,21,23,25,27,-1,-1,29,-1,-1,31,-1,-1,33,35,37,39,-1,-1,-1,-1,-1,-1,-1,-1,-1,-1,-1,-1],"loss_changes":[1.0825249E4,2.0505261E3,0E0,1.7437474E3,3.053099E3,6.5825146E2,2.1466826E3,2.6251975E3,2.0667412E3,0E0,4.517401E1,0E0,2.478241E2,6.2238965E2,1.390658E3,4.6964717E3,8.288676E3,0E0,0E0,1.5379149E2,0E0,0E0,3.4477783E2,0E0,0E0,3.9470112E3,7.02225E3,1.0616982E3,4.242051E3,0E0,0E0,0E0,0E0,0E0,0E0,0E0,0E0,0E0,0E0,0E0,0E0],"parents":[2147483647,0,0,1,1,3,3,4,4,5,5,6,6,7,7,8,8,10,10,12,12,13,13,14,14,15,15,16,16,19,19,22,22,25,25,26,26,27,27,28,28],"right_children":[2,4,-1,6,8,10,12,14,16,-1,18,-1,20,22,24,26,28,-1,-1,30,-1,-1,32,-1,-1,34,36,38,40,-1,-1,-1,-1,-1,-1,-1,-1,-1,-1,-1,-1],"split_conditions":[2.88E2,1.5E1,2.2184547E1,2.51E1,2E1,1.1E1,2.67E1,7.05E1,1.75E1,-8.435148E0,1.63E1,9.0327215E0,2.84E1,1.7E1,5E0,1.01E2,1.82E1,-2.7111742E-1,-2.8369768E0,2.8E1,-5.2337723E0,1.6170869E0,2.09E1,3.1779833E0,-6.5107636E0,9.72E1,1E2,1.77E1,2.03E1,-2.5834947E0,8.5409856E-1,1.3997943E1,2.9707215E0,1.0640107E0,-1.0274878E1,1.4185803E1,-8.7336427E-1,-2.5202637E0,-1.0265182E1,8.701509E0,-1.4322793E-1],"split_indices":[3,3,0,0,3,3,0,4,0,0,0,0,0,3,2,4,0,0,0,0,0,0,0,0,0,4,3,0,4,0,0,0,0,0,0,0,0,0,0,0,0],"split_type":[0,0,0,0,0,0,0,0,0,0,0,0,0,0,0,0,0,0,0,0,0,0,0,0,0,0,0,0,0,0,0,0,0,0,0,0,0,0,0,0,0],"sum_hessian":[2.85E2,2.84E2,1E0,1.3E1,2.71E2,8E0,5E0,8E0,2.63E2,4E0,4E0,1E0,4E0,4E0,4E0,4.6E1,2.17E2,1E0,3E0,3E0,1E0,1E0,3E0,3E0,1E0,3.6E1,1E1,1E1,2.07E2,1E0,2E0,2E0,1E0,3.4E1,2E0,5E0,5E0,3E0,7E0,4E0,2.03E2],"tree_param":{"num_deleted":"0","num_feature":"6","num_nodes":"41","size_leaf_vector":"1"}},{"base_weights":[5.4225147E-1,1.03057966E-1,1.8856861E1,-1.0117517E0,4.6799E0,-1.3893669E0,8.407276E0,3.8922688E1,2.6908581E0,-8.211803E-2,-9.694073E0,1.45790415E1,2.9361696E0,2.8753067E1,5.940013E-1,-1.2784826E0,1.7041414E1,-1.0531127E0,-2.3287834E1,1.811783E0,1.0293371E1,-1.3763112E1,4.8862853E0,-1.6152753E-1,-1.3872754E1,3.1627405E1,2.6722565E-1,3.1788309E0,-4.1285815E0,-1.0101656E1,1.7696732E0,-6.378586E0,1.0308619E1,5.709424E0,-3.40609E-1],"categories":[],"categories_nodes":[],"categories_segments":[],"categories_sizes":[],"default_left":[0,0,0,0,0,0,0,0,0,0,0,0,0,0,0,0,0,0,0,0,0,0,0,0,0,0,0,0,0,0,0,0,0,0,0],"id":23,"left_children":[1,3,-1,5,7,9,-1,11,13,15,17,-1,-1,19,21,23,25,27,29,-1,-1,31,33,-1,-1,-1,-1,-1,-1,-1,-1,-1,-1,-1,-1],"loss_changes":[7.8207363E3,1.4588926E3,0E0,2.5607559E3,3.7094438E3,2.4744443E3,0E0,3.6995068E2,2.9339514E3,4.0780127E3,3.6168335E3,0E0,0E0,2.9777344E2,3.210116E3,6.164431E3,1.846292E4,3.10678E3,3.8356533E3,0E0,0E0,5.0612E3,3.4286868E3,0E0,0E0,0E0,0E0,0E0,0E0,0E0,0E0,0E0,0E0,0E0,0E0],"parents":[2147483647,0,0,1,1,3,3,4,4,5,5,7,7,8,8,9,9,10,10,13,13,14,14,15,15,16,16,17,17,18,18,21,21,22,22],"right_children":[2,4,-1,6,8,10,-1,12,14,16,18,-1,-1,20,22,24,26,28,30,-1,-1,32,34,-1,-1,-1,-1,-1,-1,-1,-1,-1,-1,-1,-1],"split_conditions":[2.88E2,1.335E2,1.8856861E1,7.7E1,1.375E2,1.175E2,8.407276E0,2.3E1,3.6E1,1.136E2,2.19E1,1.45790415E1,2.9361696E0,2.76E1,1.464E2,1.115E2,1.14E2,8E0,2.99E1,1.811783E0,1.0293371E1,1.92E2,1.561E2,-1.6152753E-1,-1.3872754E1,3.1627405E1,2.6722565E-1,3.1788309E0,-4.1285815E0,-1.0101656E1,1.7696732E0,-6.378586E0,1.0308619E1,5.709424E0,-3.40609E-1],"split_indices":[3,4,0,5,4,4,0,0,3,4,0,0,0,0,4,4,4,2,0,0,0,3,4,0,0,0,0,0,0,0,0,0,0,0,0],"split_type":[0,0,0,0,0,0,0,0,0,0,0,0,0,0,0,0,0,0,0,0,0,0,0,0,0,0,0,0,0,0,0,0,0,0,0],"sum_hessian":[2.85E2,2.84E2,1E0,2.29E2,5.5E1,2.27E2,2E0,2E0,5.3E1,1.97E2,3E1,1E0,1E0,3E0,5E1,1.85E2,1.2E1,1.9E1,1.1E1,1E0,2E0,1.1E1,3.9E1,1.83E2,2E0,1E0,1.1E1,1E1,9E0,8E0,3E0,1E1,1E0,1.1E1,2.8E1],"tree_param":{"num_deleted":"0","num_feature":"6","num_nodes":"35","size_leaf_vector":"1"}},{"base_weights":[6.4097935E-1,4.1994892E-2,3.429551E1,-1.34343E1,3.8363284E-1,1.65271E1,2.0688477E0,2.387741E0,-1.8326395E1,3.3394756E1,-2.2459972E-1,-4.178467E-1,1.3488282E0,-1.2306702E0,-2.035078E1,-1.5394593E-2,1.2530732E1,3.2931688E0,-1.5805683E0,-7.5696416E0,-2.6057496E0,1.6156912E0,1.5601536E1,-1.1814662E1,1.1020967E0,-4.9429035E0,1.2907705E0,7.644861E0,-9.362549E-1,-1.0751473E0,-1.1091562E1,8.106422E0,2.151459E-2],"categories":[],"categories_nodes":[],"categories_segments":[],"categories_sizes":[],"default_left":[0,0,0,0,0,0,0,0,0,0,0,0,0,0,0,0,0,0,0,0,0,0,0,0,0,0,0,0,0,0,0,0,0],"id":24,"left_children":[1,3,5,7,9,-1,11,-1,13,15,17,-1,-1,-1,19,-1,-1,21,23,-1,-1,25,27,29,31,-1,-1,-1,-1,-1,-1,-1,-1],"loss_changes":[5.7639023E3,1.3034857E3,3.2367656E3,8.784735E2,5.54915E3,0E0,3.146923E1,0E0,8.92876E1,1.4025889E3,1.3026405E3,0E0,0E0,0E0,6.554175E1,0E0,0E0,1.5439653E3,5.421586E3,0E0,0E0,3.376444E3,1.7445474E3,8.357162E3,4.191026E3,0E0,0E0,0E0,0E0,0E0,0E0,0E0,0E0],"parents":[2147483647,0,0,1,1,2,2,3,3,4,4,6,6,8,8,9,9,10,10,14,14,17,17,18,18,21,21,22,22,23,23,24,24],"right_children":[2,4,6,8,10,-1,12,-1,14,16,18,-1,-1,-1,20,-1,-1,22,24,-1,-1,26,28,30,32,-1,-1,-1,-1,-1,-1,-1,-1],"split_conditions":[2.01E2,1.25E1,8E0,1.13E1,1.35E1,1.65271E1,1.77E1,2.387741E0,2E0,4E0,3E0,-4.178467E-1,1.3488282E0,-1.2306702E0,4.4E1,-1.5394593E-2,1.2530732E1,1.07E2,7.98E1,-7.5696416E0,-2.6057496E0,3E0,8E0,4.4E1,8.34E1,-4.9429035E0,1.2907705E0,7.644861E0,-9.362549E-1,-1.0751473E0,-1.1091562E1,8.106422E0,2.151459E-2],"split_indices":[3,0,2,0,0,0,0,0,1,1,1,0,0,0,5,0,0,3,4,0,0,5,2,3,4,0,0,0,0,0,0,0,0],"split_type":[0,0,0,0,0,0,0,0,0,0,0,0,0,0,0,0,0,0,0,0,0,0,0,0,0,0,0,0,0,0,0,0,0],"sum_hessian":[2.85E2,2.81E2,4E0,6E0,2.75E2,2E0,2E0,1E0,5E0,4E0,2.71E2,1E0,1E0,1E0,4E0,1E0,3E0,7.5E1,1.96E2,2E0,2E0,6.7E1,8E0,4E1,1.56E2,8E0,5.9E1,5E0,3E0,3.1E1,9E0,5E0,1.51E2],"tree_param":{"num_deleted":"0","num_feature":"6","num_nodes":"33","size_leaf_vector":"1"}},{"base_weights":[5.185356E-1,2.034125E-1,1.3549293E1,7.08835E0,-4.2804515E-1,1.6258661E1,-1.9218116E0,-3.3700714E1,8.747116E-2,-1.6304322E0,2.1140827E1,-1.5727594E1,5.961602E0,-1.3989222E1,7.6340336E-1,7.985308E0,-8.660931E-1,-4.34198E0,2.8054276E1,-6.7225733E0,1.6494508E0,-1.7611607E0,6.5982547E0,2.9694824E0,1.4638208E1,-5.16202E0,1.4288818E0,8.795472E-1,-2.8334382E0,9.432684E0,6.5073854E-1,-4.108594E0,7.531251E-1,2.2732935E0,-5.370099E0,-8.3983195E-1,-7.911191E0,-4.8283082E-1,1.873612E0],"categories":[],"categories_nodes":[],"categories_segments":[],"categories_sizes":[],"default_left":[0,0,0,0,0,0,0,0,0,0,0,0,0,0,0,0,0,0,0,0,0,0,0,0,0,0,0,0,0,0,0,0,0,0,0,0,0,0,0],"id":25,"left_children":[1,3,-1,5,7,9,11,13,15,-1,17,19,21,-1,-1,23,25,27,29,-1,-1,31,-1,33,-1,35,37,-1,-1,-1,-1,-1,-1,-1,-1,-1,-1,-1,-1],"loss_changes":[4.014522E3,1.2420847E3,0E0,2.0142698E3,4.4969297E3,1.3858267E3,1.5086387E3,1.9932749E3,1.9574695E3,0E0,1.8835522E3,8.322511E2,1.1530775E3,0E0,0E0,5.5864106E3,2.2946743E3,1.3904106E2,6.3338916E2,0E0,0E0,3.912245E2,0E0,2.636101E3,0E0,3.9848489E3,2.2344243E3,0E0,0E0,0E0,0E0,0E0,0E0,0E0,0E0,0E0,0E0,0E0,0E0],"parents":[2147483647,0,0,1,1,3,3,4,4,5,5,6,6,7,7,8,8,10,10,11,11,12,12,15,15,16,16,17,17,18,18,21,21,23,23,25,25,26,26],"right_children":[2,4,-1,6,8,10,12,14,16,-1,18,20,22,-1,-1,24,26,28,30,-1,-1,32,-1,34,-1,36,38,-1,-1,-1,-1,-1,-1,-1,-1,-1,-1,-1,-1],"split_conditions":[2.88E2,2E0,1.3549293E1,7.85E1,3E0,2.85E1,9.1E1,2.24E1,2.8E1,-1.6304322E0,1.76E1,4.2E1,2.57E1,-1.3989222E1,7.6340336E-1,2.74E1,7.98E1,1.71E1,3.07E1,-6.7225733E0,1.6494508E0,2.09E1,6.5982547E0,2.53E1,1.4638208E1,7.4E1,9E0,8.795472E-1,-2.8334382E0,9.432684E0,6.5073854E-1,-4.108594E0,7.531251E-1,2.2732935E0,-5.370099E0,-8.3983195E-1,-7.911191E0,-4.8283082E-1,1.873612E0],"split_indices":[3,2,0,4,5,4,4,0,4,0,0,3,0,0,0,0,4,0,0,0,0,0,0,0,0,4,2,0,0,0,0,0,0,0,0,0,0,0,0],"split_type":[0,0,0,0,0,0,0,0,0,0,0,0,0,0,0,0,0,0,0,0,0,0,0,0,0,0,0,0,0,0,0,0,0,0,0,0,0,0,0],"sum_hessian":[2.85E2,2.84E2,1E0,2.3E1,2.61E2,1.1E1,1.2E1,3E0,2.58E2,2E0,9E0,4E0,8E0,2E0,1E0,2.7E1,2.31E2,2E0,7E0,3E0,1E0,6E0,2E0,2.5E1,2E0,8E1,1.51E2,1E0,1E0,6E0,1E0,1E0,5E0,2.1E1,4E0,7.3E1,7E0,9.3E1,5.8E1],"tree_param":{"num_deleted":"0","num_feature":"6","num_nodes":"39","size_leaf_vector":"1"}},{"base_weights":[3.9506775E-1,1.2705292E-1,1.1516895E1,-1.5980334E1,4.1320908E-1,3.2872517E0,-8.976343E0,1.8053995E1,2.8216597E-2,-1.3870697E0,2.866333E0,1.3855861E1,-7.558655E0,-1.264361E1,5.5213344E-1,4.831543E0,-6.7093873E0,-2.5398489E1,7.7419434E0,2.0160131E1,1.7582761E-1,2.7102907E0,-5.360962E-1,-1.0701883E1,-2.6323242E0,3.8259766E0,4.4995118E-2,6.488892E-1,7.2356052E0,-7.314673E0,1.3755412E-1],"categories":[],"categories_nodes":[],"categories_segments":[],"categories_sizes":[],"default_left":[0,0,0,0,0,0,0,0,0,0,0,0,0,0,0,0,0,0,0,0,0,0,0,0,0,0,0,0,0,0,0],"id":26,"left_children":[1,3,-1,5,7,9,-1,11,13,-1,-1,-1,15,17,19,21,-1,23,25,27,29,-1,-1,-1,-1,-1,-1,-1,-1,-1,-1],"loss_changes":[2.9074924E3,1.3202333E3,0E0,1.441387E3,1.9079219E3,1.9291142E2,0E0,4.672347E3,1.8393403E3,0E0,0E0,0E0,8.418512E2,3.0568018E3,1.959164E3,9.959243E1,0E0,8.826138E2,1.8831561E2,3.040459E2,1.8300425E3,0E0,0E0,0E0,0E0,0E0,0E0,0E0,0E0,0E0,0E0],"parents":[2147483647,0,0,1,1,3,3,4,4,5,5,7,7,8,8,12,12,13,13,14,14,15,15,17,17,18,18,19,19,20,20],"right_children":[2,4,-1,6,8,10,-1,12,14,-1,-1,-1,16,18,20,22,-1,24,26,28,30,-1,-1,-1,-1,-1,-1,-1,-1,-1,-1],"split_conditions":[2.88E2,1.74E1,1.1516895E1,1.56E1,2.03E1,1.21E1,-8.976343E0,8E0,2.33E1,-1.3870697E0,2.866333E0,1.3855861E1,1.83E1,8E0,2.55E1,1.75E1,-6.7093873E0,7.2E1,1E1,2.34E1,2.64E1,2.7102907E0,-5.360962E-1,-1.0701883E1,-2.6323242E0,3.8259766E0,4.4995118E-2,6.488892E-1,7.2356052E0,-7.314673E0,1.3755412E-1],"split_indices":[3,4,0,0,4,0,0,2,4,0,0,0,0,2,4,0,0,3,2,0,4,0,0,0,0,0,0,0,0,0,0],"split_type":[0,0,0,0,0,0,0,0,0,0,0,0,0,0,0,0,0,0,0,0,0,0,0,0,0,0,0,0,0,0,0],"sum_hessian":[2.85E2,2.84E2,1E0,4E0,2.8E2,2E0,2E0,5E0,2.75E2,1E0,1E0,2E0,3E0,1E1,2.65E2,2E0,1E0,6E0,4E0,4E0,2.61E2,1E0,1E0,3E0,3E0,2E0,2E0,1E0,3E0,2E0,2.59E2],"tree_param":{"num_deleted":"0","num_feature":"6","num_nodes":"31","size_leaf_vector":"1"}},{"base_weights":[2.925906E-1,-8.889576E-2,2.1749903E1,-1.1412894E1,1.9862919E-1,1.074961E1,4.17806E-1,-2.0108612E1,6.8842673E0,4.6425705E0,-8.0508596E-1,-6.56836E-1,8.448487E-1,-1.1021568E1,-8.468518E0,6.537873E0,-3.4399521E0,1.2161188E0,1.6991838E1,-2.0262102E1,2.8463164E-1,-5.5829253E0,1.7614472E0,6.331153E0,-9.100815E0,2.5676819E1,-4.4181156E0,-3.728706E1,2.9773662E0,2.6777231E1,-6.040422E-1,2.8149918E-1,7.784534E0,-4.3534436E0,2.4161134E0,5.368872E-1,1.3328595E1,-4.09602E0,-1.9274242E1,-4.199602E0,7.385889E0,9.621885E0,-7.495606E-1,-7.8739886E0,1.24348834E-1],"categories":[],"categories_nodes":[],"categories_segments":[],"categories_sizes":[],"default_left":[0,0,0,0,0,0,0,0,0,0,0,0,0,0,0,0,0,0,0,0,0,0,0,0,0,0,0,0,0,0,0,0,0,0,0,0,0,0,0,0,0,0,0,0,0],"id":27,"left_children":[1,3,5,7,9,-1,11,13,15,17,19,-1,-1,21,-1,-1,-1,23,25,27,29,-1,-1,31,33,35,-1,37,39,41,43,-1,-1,-1,-1,-1,-1,-1,-1,-1,-1,-1,-1,-1,-1],"loss_changes":[2.3430356E3,9.2043976E2,1.4870359E3,1.2521819E3,1.2348223E3,0E0,2.4925262E1,5.7802734E1,1.0706438E3,2.1373584E3,4.7975674E3,0E0,0E0,6.2201746E2,0E0,0E0,0E0,2.2212488E3,3.4084014E3,4.858829E3,5.0779795E3,0E0,0E0,2.9378438E3,1.4163142E3,3.9518477E3,0E0,3.5830166E3,2.5490415E3,1.1653882E3,5.4695317E3,0E0,0E0,0E0,0E0,0E0,0E0,0E0,0E0,0E0,0E0,0E0,0E0,0E0,0E0],"parents":[2147483647,0,0,1,1,2,2,3,3,4,4,6,6,7,7,8,8,9,9,10,10,13,13,17,17,18,18,19,19,20,20,23,23,24,24,25,25,27,27,28,28,29,29,30,30],"right_children":[2,4,6,8,10,-1,12,14,16,18,20,-1,-1,22,-1,-1,-1,24,26,28,30,-1,-1,32,34,36,-1,38,40,42,44,-1,-1,-1,-1,-1,-1,-1,-1,-1,-1,-1,-1,-1,-1],"split_conditions":[2.01E2,1.1E1,8E0,2.17E1,1.77E1,1.074961E1,1.77E1,1.48E1,2.67E1,1.72E1,1.83E1,-6.56836E-1,8.448487E-1,1.39E1,-8.468518E0,6.537873E0,-3.4399521E0,1.62E1,5.5E1,4.2E1,1.86E1,-5.5829253E0,1.7614472E0,8.49E1,1.182E2,4E0,-4.4181156E0,3.2E1,1.82E1,1.1E1,1.92E1,2.8149918E-1,7.784534E0,-4.3534436E0,2.4161134E0,5.368872E-1,1.3328595E1,-4.09602E0,-1.9274242E1,-4.199602E0,7.385889E0,9.621885E0,-7.495606E-1,-7.8739886E0,1.24348834E-1],"split_indices":[3,3,2,0,0,0,0,0,0,0,0,0,0,0,0,0,0,0,5,5,0,0,0,4,4,1,0,5,0,2,0,0,0,0,0,0,0,0,0,0,0,0,0,0,0],"split_type":[0,0,0,0,0,0,0,0,0,0,0,0,0,0,0,0,0,0,0,0,0,0,0,0,0,0,0,0,0,0,0,0,0,0,0,0,0,0,0,0,0,0,0,0,0],"sum_hessian":[2.85E2,2.81E2,4E0,6E0,2.75E2,2E0,2E0,4E0,2E0,5E1,2.25E2,1E0,1E0,3E0,1E0,1E0,1E0,4E1,1E1,1.1E1,2.14E2,2E0,1E0,2.7E1,1.3E1,8E0,2E0,6E0,5E0,6E0,2.08E2,2.2E1,5E0,1E1,3E0,4E0,4E0,4E0,2E0,3E0,2E0,5E0,1E0,7E0,2.01E2],"tree_param":{"num_deleted":"0","num_feature":"6","num_nodes":"45","size_leaf_vector":"1"}},{"base_weights":[1.987401E-1,-1.684158E-1,1.4856585E1,4.960939E-3,-7.2810793E0,2.0586132E1,3.5514322E-1,-1.0660575E1,2.7841803E-1,1.6933595E0,8.599708E0,-5.5832523E-1,7.1813965E-1,2.0926943E0,-1.4762553E1,2.2600647E1,-1.3752829E-1,-1.6116283E1,-1.1990845E0,5.0033573E-2,8.450226E0,-1.3678077E0,2.7861044E0,-1.2212311E0,-5.432991E0,1.0649332E-1,-8.085612E0,6.509022E0,-7.9834753E-1],"categories":[],"categories_nodes":[],"categories_segments":[],"categories_sizes":[],"default_left":[0,0,0,0,0,0,0,0,0,0,0,0,0,0,0,0,0,0,0,0,0,0,0,0,0,0,0,0,0],"id":28,"left_children":[1,3,5,7,-1,9,11,13,15,-1,-1,-1,-1,-1,17,19,21,23,-1,-1,-1,25,27,-1,-1,-1,-1,-1,-1],"loss_changes":[1.5416724E3,1.1701564E3,5.74296E2,8.1669025E2,0E0,4.4180322E2,1.8009434E1,6.093821E2,2.537872E3,0E0,0E0,0E0,0E0,0E0,2.302649E1,6.197234E2,9.713729E2,4.635327E1,0E0,0E0,0E0,8.384034E3,8.298634E3,0E0,0E0,0E0,0E0,0E0,0E0],"parents":[2147483647,0,0,1,1,2,2,3,3,5,5,6,6,7,7,8,8,14,14,15,15,16,16,17,17,21,21,22,22],"right_children":[2,4,6,8,-1,10,12,14,16,-1,-1,-1,-1,-1,18,20,22,24,-1,-1,-1,26,28,-1,-1,-1,-1,-1,-1],"split_conditions":[1.92E2,1.79E2,9E0,1.25E1,-7.2810793E0,2.01E2,1.77E1,1.13E1,1.35E1,1.6933595E0,8.599708E0,-5.5832523E-1,7.1813965E-1,2.0926943E0,8E0,4E0,3.6E1,2E0,-1.1990845E0,5.0033573E-2,8.450226E0,3.2E1,5E0,-1.2212311E0,-5.432991E0,1.0649332E-1,-8.085612E0,6.509022E0,-7.9834753E-1],"split_indices":[3,3,2,0,0,3,0,0,0,0,0,0,0,0,2,1,5,1,0,0,0,5,1,0,0,0,0,0,0],"split_type":[0,0,0,0,0,0,0,0,0,0,0,0,0,0,0,0,0,0,0,0,0,0,0,0,0,0,0,0,0],"sum_hessian":[2.85E2,2.79E2,6E0,2.78E2,1E0,4E0,2E0,6E0,2.72E2,2E0,2E0,1E0,1E0,1E0,5E0,4E0,2.68E2,4E0,1E0,1E0,3E0,1.89E2,7.9E1,1E0,3E0,1.78E2,1.1E1,1.7E1,6.2E1],"tree_param":{"num_deleted":"0","num_feature":"6","num_nodes":"29","size_leaf_vector":"1"}},{"base_weights":[1.5187258E-1,-8.6930925E-3,6.8869634E0,-1.1803467E1,2.0120926E-1,2.9781494E0,-6.795179E0,1.4383708E1,-1.0783494E-1,-1.0380433E0,2.3782105E0,1.008877E1,-3.6463623E0,-9.920609E0,2.983619E-1,5.2222495E0,-4.53783E0,-1.9881643E1,6.00896E0,7.0568867E0,-6.891411E-1,2.2072449E0,1.4276734E-1,-8.345893E0,-2.091971E0,3.0146363E0,-1.0156251E-2,6.7206454E0,1.0915991E0,-9.9573165E-1,5.445204E-1],"categories":[],"categories_nodes":[],"categories_segments":[],"categories_sizes":[],"default_left":[0,0,0,0,0,0,0,0,0,0,0,0,0,0,0,0,0,0,0,0,0,0,0,0,0,0,0,0,0,0,0],"id":29,"left_children":[1,3,-1,5,7,9,-1,11,13,-1,-1,-1,15,17,19,21,-1,23,25,27,29,-1,-1,-1,-1,-1,-1,-1,-1,-1,-1],"loss_changes":[1.0474305E3,7.079639E2,0E0,8.6914734E2,1.2331794E3,1.2302341E2,0E0,2.2046133E3,1.1030734E3,0E0,0E0,0E0,4.8622955E2,1.8648931E3,1.7801641E3,2.6902382E1,0E0,5.232754E2,1.2239984E2,1.7019061E3,1.5405577E3,0E0,0E0,0E0,0E0,0E0,0E0,0E0,0E0,0E0,0E0],"parents":[2147483647,0,0,1,1,3,3,4,4,5,5,7,7,8,8,12,12,13,13,14,14,15,15,17,17,18,18,19,19,20,20],"right_children":[2,4,-1,6,8,10,-1,12,14,-1,-1,-1,16,18,20,22,-1,24,26,28,30,-1,-1,-1,-1,-1,-1,-1,-1,-1,-1],"split_conditions":[2.88E2,1.74E1,6.8869634E0,1.56E1,2.03E1,1.21E1,-6.795179E0,8E0,2.33E1,-1.0380433E0,2.3782105E0,1.008877E1,1.83E1,8E0,4.14E1,1.75E1,-4.53783E0,7.2E1,1E1,7.2E1,1.025E2,2.2072449E0,1.4276734E-1,-8.345893E0,-2.091971E0,3.0146363E0,-1.0156251E-2,6.7206454E0,1.0915991E0,-9.9573165E-1,5.445204E-1],"split_indices":[3,4,0,0,4,0,0,2,4,0,0,0,0,2,4,0,0,3,2,3,4,0,0,0,0,0,0,0,0,0,0],"split_type":[0,0,0,0,0,0,0,0,0,0,0,0,0,0,0,0,0,0,0,0,0,0,0,0,0,0,0,0,0,0,0],"sum_hessian":[2.85E2,2.84E2,1E0,4E0,2.8E2,2E0,2E0,5E0,2.75E2,1E0,1E0,2E0,3E0,1E1,2.65E2,2E0,1E0,6E0,4E0,3.3E1,2.32E2,1E0,1E0,3E0,3E0,2E0,2E0,5E0,2.8E1,1.13E2,1.19E2],"tree_param":{"num_deleted":"0","num_feature":"6","num_nodes":"31","size_leaf_vector":"1"}},{"base_weights":[1.3871162E-1,7.9985255E-1,-3.9473014E0,2.0766495E-1,4.889522E1,-3.535992E1,1.5504987E0,-4.136888E0,1.5168283E0,-3.4989076E0,2.5501759E1,-8.572311E0,-1.7787027E1,1.5453681E1,-3.038465E0,4.3287873E0,-1.6839573E1,2.4859863E1,2.1156617E-1,-4.090741E0,9.9272466E-1,1.9386621E1,-6.8000846E0,-4.5796695E0,1.4030663E1,-3.6385277E1,-6.014248E0,-8.814982E0,6.0297707E1,-2.109489E0,3.4891698E0,7.9986696E0,1.6946412E0,-1.4939017E1,1.7921875E0,-3.7945749E-3,-6.510851E0,1.08152084E-1,1.0052387E1,1.2627732E0,-1.8475153E1,5.0545945E0,-7.7005715E0,2.5373402E0,-1.42768345E1,2.800397E0,2.1211441E1,1.0928528E-1,-7.7682424E0,-2.75923E-1,4.245735E0,-7.1974263E0,-1.8715109E0,2.1336515E0,-3.0810647E0],"categories":[],"categories_nodes":[],"categories_segments":[],"categories_sizes":[],"default_left":[0,0,0,0,0,0,0,0,0,0,0,0,0,0,0,0,0,0,0,0,0,0,0,0,0,0,0,0,0,0,0,0,0,0,0,0,0,0,0,0,0,0,0,0,0,0,0,0,0,0,0,0,0,0,0],"id":30,"left_children":[1,3,5,7,9,11,13,15,17,-1,-1,19,-1,-1,21,23,25,27,29,-1,-1,31,33,35,37,39,41,43,45,47,49,-1,-1,51,53,-1,-1,-1,-1,-1,-1,-1,-1,-1,-1,-1,-1,-1,-1,-1,-1,-1,-1,-1,-1],"loss_changes":[7.7576636E2,7.024772E3,6.9628374E3,1.3997687E3,7.5518164E3,3.3379395E3,8.1810645E3,6.202492E3,5.7533394E3,0E0,0E0,2.857673E2,0E0,0E0,2.9155337E3,3.0892617E3,4.647709E3,1.2465161E4,1.3767102E3,0E0,0E0,3.491454E2,2.0547993E3,1.4855608E3,4.5143E3,8.442609E3,7.6221577E3,4.420959E3,1.9918828E3,6.246243E3,3.539027E3,0E0,0E0,1.0317593E3,1.0356204E3,0E0,0E0,0E0,0E0,0E0,0E0,0E0,0E0,0E0,0E0,0E0,0E0,0E0,0E0,0E0,0E0,0E0,0E0,0E0,0E0],"parents":[2147483647,0,0,1,1,2,2,3,3,4,4,5,5,6,6,7,7,8,8,11,11,14,14,15,15,16,16,17,17,18,18,21,21,22,22,23,23,24,24,25,25,26,26,27,27,28,28,29,29,30,30,33,33,34,34],"right_children":[2,4,6,8,10,12,14,16,18,-1,-1,20,-1,-1,22,24,26,28,30,-1,-1,32,34,36,38,40,42,44,46,48,50,-1,-1,52,54,-1,-1,-1,-1,-1,-1,-1,-1,-1,-1,-1,-1,-1,-1,-1,-1,-1,-1,-1,-1],"split_conditions":[2.85E1,2.84E1,2.3E1,3.8E1,4E0,4E0,2.8E1,2.7E1,4.4E1,-3.4989076E0,2.5501759E1,2.89E1,-1.7787027E1,1.5453681E1,2E0,2.08E1,3.2E1,8E0,2.27E1,-4.090741E0,9.9272466E-1,3.07E1,4.9E1,1.95E1,1.9E1,1.85E1,6E0,2.44E1,2E0,2.23E1,2.7E1,7.9986696E0,1.6946412E0,2.93E1,1.33E2,-3.7945749E-3,-6.510851E0,1.08152084E-1,1.0052387E1,1.2627732E0,-1.8475153E1,5.0545945E0,-7.7005715E0,2.5373402E0,-1.42768345E1,2.800397E0,2.1211441E1,1.0928528E-1,-7.7682424E0,-2.75923E-1,4.245735E0,-7.1974263E0,-1.8715109E0,2.1336515E0,-3.0810647E0],"split_indices":[0,0,3,3,1,2,3,3,3,0,0,0,0,0,2,0,3,2,0,0,0,0,5,0,3,0,2,0,1,0,5,0,0,0,3,0,0,0,0,0,0,0,0,0,0,0,0,0,0,0,0,0,0,0,0],"split_type":[0,0,0,0,0,0,0,0,0,0,0,0,0,0,0,0,0,0,0,0,0,0,0,0,0,0,0,0,0,0,0,0,0,0,0,0,0,0,0,0,0,0,0,0,0,0,0,0,0,0,0,0,0,0,0],"sum_hessian":[2.85E2,2.46E2,3.9E1,2.44E2,2E0,5E0,3.4E1,5.6E1,1.88E2,1E0,1E0,3E0,2E0,2E0,3.2E1,3.4E1,2.2E1,9E0,1.79E2,2E0,1E0,4E0,2.8E1,1.8E1,1.6E1,7E0,1.5E1,5E0,4E0,1.05E2,7.4E1,2E0,2E0,1.4E1,1.4E1,1.5E1,3E0,1E1,6E0,3E0,4E0,7E0,8E0,4E0,1E0,1E0,3E0,9.6E1,9E0,5.3E1,2.1E1,6E0,8E0,1E1,4E0],"tree_param":{"num_deleted":"0","num_feature":"6","num_nodes":"55","size_leaf_vector":"1"}},{"base_weights":[1.272189E-1,3.0538225E0,-6.4689314E-1,-7.8623223E0,4.4123263E0,-1.1510242E1,2.8733146E-1,-1.1400574E1,2.0050783E0,8.049146E0,3.0341184E0,1.0892021E1,-1.671683E1,2.2123134E0,-4.343469E0,1.1839051E0,-1.5259229E1,-9.611176E0,5.2147455E0,-8.932801E-1,4.9523287E0,-1.2528764E1,-6.975189E0,1.968806E1,-1.4697976E0,-1.2818803E1,6.4058228E0,-8.8177186E-1,-5.281325E0,-1.69479E1,1.9625244E0,7.856666E0,-6.225898E0,-3.0423362E0,-7.535486E0,2.36015E1,-5.454639E0,6.429605E-1,-8.736503E0,-2.8291094E1,-3.5162566E0,2.4411112E1,-6.680607E0,-9.072693E-1,-5.9018283E0,2.3803346E0,-8.018799E-1,1.4818014E0,1.1781982E1,-8.121998E0,1.0794382E0,-2.4230347E0,7.497498E-1,5.553461E0,2.11006E1,-2.5018576E-1,1.4159266E1,-5.217286E0,1.8658664E0,-3.349339E0,-1.6038242E1,-8.717066E0,-3.1036547E-1,2.403611E0,2.12813E1,-6.572725E0,-9.2882365E-2],"categories":[],"categories_nodes":[],"categories_segments":[],"categories_sizes":[],"default_left":[0,0,0,0,0,0,0,0,0,0,0,0,0,0,0,0,0,0,0,0,0,0,0,0,0,0,0,0,0,0,0,0,0,0,0,0,0,0,0,0,0,0,0,0,0,0,0,0,0,0,0,0,0,0,0,0,0,0,0,0,0,0,0,0,0,0,0],"id":31,"left_children":[1,3,5,7,9,11,13,15,-1,-1,17,19,21,23,25,-1,27,29,31,-1,-1,-1,33,35,37,39,41,-1,-1,43,45,47,49,51,-1,53,-1,55,57,59,61,63,65,-1,-1,-1,-1,-1,-1,-1,-1,-1,-1,-1,-1,-1,-1,-1,-1,-1,-1,-1,-1,-1,-1,-1,-1],"loss_changes":[6.49914E2,9.244684E2,2.3070867E3,4.3646658E2,1.5870245E3,2.281588E3,1.8815924E3,4.1552924E2,0E0,0E0,1.4840029E3,3.6070624E2,3.3684937E3,9.616736E3,5.7305527E3,0E0,9.271973E1,7.1256506E2,1.4090519E3,0E0,0E0,0E0,7.7983136E2,4.2823945E3,1.9093632E3,4.93813E3,6.7605796E3,0E0,0E0,1.3020532E2,1.3193864E2,3.197161E3,1.9406641E3,3.2706754E2,0E0,4.4069473E3,0E0,6.708797E3,3.732385E3,5.007081E3,1.4277782E3,8.587555E3,1.6425671E3,0E0,0E0,0E0,0E0,0E0,0E0,0E0,0E0,0E0,0E0,0E0,0E0,0E0,0E0,0E0,0E0,0E0,0E0,0E0,0E0,0E0,0E0,0E0,0E0],"parents":[2147483647,0,0,1,1,2,2,3,3,4,4,5,5,6,6,7,7,10,10,11,11,12,12,13,13,14,14,16,16,17,17,18,18,22,22,23,23,24,24,25,25,26,26,29,29,30,30,31,31,32,32,33,33,35,35,37,37,38,38,39,39,40,40,41,41,42,42],"right_children":[2,4,6,8,10,12,14,16,-1,-1,18,20,22,24,26,-1,28,30,32,-1,-1,-1,34,36,38,40,42,-1,-1,44,46,48,50,52,-1,54,-1,56,58,60,62,64,66,-1,-1,-1,-1,-1,-1,-1,-1,-1,-1,-1,-1,-1,-1,-1,-1,-1,-1,-1,-1,-1,-1,-1,-1],"split_conditions":[9E0,1.76E1,1.1E1,7E0,2.03E1,1.7E1,2.49E1,3E0,2.0050783E0,8.049146E0,2.33E1,7.53E1,3.4E1,5E0,1.1E1,1.1839051E0,1.21E1,5E0,1.156E2,-8.932801E-1,4.9523287E0,-1.2528764E1,1.368E2,1.2E2,2.22E1,1.144E2,1.14E2,-8.8177186E-1,-5.281325E0,2E0,2.13E1,9.1E1,1.228E2,2E0,-7.535486E0,1.08E2,-5.454639E0,2.2E1,1.12E2,4E0,2.53E1,4E0,1.335E2,-9.072693E-1,-5.9018283E0,2.3803346E0,-8.018799E-1,1.4818014E0,1.1781982E1,-8.121998E0,1.0794382E0,-2.4230347E0,7.497498E-1,5.553461E0,2.11006E1,-2.5018576E-1,1.4159266E1,-5.217286E0,1.8658664E0,-3.349339E0,-1.6038242E1,-8.717066E0,-3.1036547E-1,2.403611E0,2.12813E1,-6.572725E0,-9.2882365E-2],"split_indices":[5,0,5,2,4,3,0,5,0,0,4,4,3,2,2,0,0,2,4,0,0,0,4,3,0,4,4,0,0,2,0,4,4,1,0,3,0,0,4,1,0,1,4,0,0,0,0,0,0,0,0,0,0,0,0,0,0,0,0,0,0,0,0,0,0,0,0],"split_type":[0,0,0,0,0,0,0,0,0,0,0,0,0,0,0,0,0,0,0,0,0,0,0,0,0,0,0,0,0,0,0,0,0,0,0,0,0,0,0,0,0,0,0,0,0,0,0,0,0,0,0,0,0,0,0,0,0,0,0,0,0,0,0,0,0,0,0],"sum_hessian":[2.85E2,5.9E1,2.26E2,6E0,5.3E1,1.7E1,2.09E2,5E0,1E0,2E0,5.1E1,3E0,1.4E1,1.48E2,6.1E1,1E0,4E0,7E0,4.4E1,1E0,2E0,3E0,1.1E1,2.5E1,1.23E2,3.4E1,2.7E1,1E0,3E0,4E0,3E0,3.6E1,8E0,1E1,1E0,2.3E1,2E0,9.6E1,2.7E1,1.2E1,2.2E1,1.1E1,1.6E1,1E0,3E0,1E0,2E0,3.4E1,2E0,2E0,6E0,5E0,5E0,2.2E1,1E0,9.4E1,2E0,1.7E1,1E1,8E0,4E0,1E0,2.1E1,9E0,2E0,4E0,1.2E1],"tree_param":{"num_deleted":"0","num_feature":"6","num_nodes":"67","size_leaf_vector":"1"}},{"base_weights":[1.1965017E-1,2.6846433E0,-8.2141703E-1,-1.2794948E0,4.975977E0,-2.5753102E0,2.2414804E0,1.386045E0,-1.4351294E1,2.7287598E1,2.9276626E0,-6.9395847E0,2.45331E0,9.558413E0,-2.6322722E0,-1.1761866E1,4.4504976E0,-5.9669194E0,-1.2087281E0,5.890503E-1,1.0522339E1,4.269598E0,-2.6790383E0,-5.434018E-1,-1.9709309E1,-3.0180225E0,1.0890456E1,1.3992807E1,-7.161587E0,-1.2353638E1,1.4480627E0,-5.481702E0,-1.3307699E0,-7.53042E0,7.712503E0,6.0144296E0,3.5033306E-1,-3.3804524E0,1.3225458E1,-8.530844E0,-1.5546869E1,2.2487894E1,-7.4303017E0,2.8633118E1,-2.8468587E0,1.9483464E0,5.7831104E1,2.6306064E0,-2.3920647E1,8.522803E0,-1.1248093E0,-7.7118534E-1,1.7233887E-1,-3.676062E0,1.7043091E0,3.6712914E0,-1.5006278E-1,-1.460669E0,2.1002796E0,5.3654563E-1,-1.1076508E0,1.1839607E0,-6.8540773E0,2.4777772E-1,-1.0468494E1,1.3690027E1,2.6196313E0,-4.5321083E0,-7.6689404E-1,1.3003612E1,6.9280154E-1,-6.6810184E0,2.7275245E0,-1.0758296E0,8.740046E0,2.2619934E-1,2.0728718E1,-2.5651429E0,2.6439407E0,-1.0097704E1,-3.4037478E0,-8.2992244E-1,3.3173952E0],"categories":[],"categories_nodes":[],"categories_segments":[],"categories_sizes":[],"default_left":[0,0,0,0,0,0,0,0,0,0,0,0,0,0,0,0,0,0,0,0,0,0,0,0,0,0,0,0,0,0,0,0,0,0,0,0,0,0,0,0,0,0,0,0,0,0,0,0,0,0,0,0,0,0,0,0,0,0,0,0,0,0,0,0,0,0,0,0,0,0,0,0,0,0,0,0,0,0,0,0,0,0,0],"id":32,"left_children":[1,3,5,7,9,11,13,15,17,19,21,23,25,27,29,31,33,-1,-1,-1,-1,35,-1,37,39,41,43,45,-1,47,49,-1,51,53,55,57,59,61,-1,63,-1,65,67,69,71,73,75,77,79,-1,81,-1,-1,-1,-1,-1,-1,-1,-1,-1,-1,-1,-1,-1,-1,-1,-1,-1,-1,-1,-1,-1,-1,-1,-1,-1,-1,-1,-1,-1,-1,-1,-1],"loss_changes":[6.9256085E2,7.057702E2,1.1338914E3,1.03035E3,2.1594707E3,2.9578264E3,2.7710508E3,1.0596249E3,2.0570679E2,7.1991284E2,7.700979E2,5.8700684E3,2.941101E3,4.929583E3,1.8822109E3,3.1524054E2,8.7879645E2,0E0,0E0,0E0,0E0,2.8510822E2,0E0,6.353046E3,8.1734424E3,4.5561216E3,6.1749287E3,1.4671567E4,0E0,2.489446E3,2.3904644E3,0E0,8.56332E0,3.8160907E2,6.3790314E2,3.45443E2,8.799567E1,6.7938047E3,0E0,4.7158013E3,0E0,1.511834E3,1.2335349E3,4.160004E3,3.6807632E3,3.5649324E3,3.8056133E3,5.5924805E2,5.9777637E2,0E0,6.705671E2,0E0,0E0,0E0,0E0,0E0,0E0,0E0,0E0,0E0,0E0,0E0,0E0,0E0,0E0,0E0,0E0,0E0,0E0,0E0,0E0,0E0,0E0,0E0,0E0,0E0,0E0,0E0,0E0,0E0,0E0,0E0,0E0],"parents":[2147483647,0,0,1,1,2,2,3,3,4,4,5,5,6,6,7,7,8,8,9,9,10,10,11,11,12,12,13,13,14,14,15,15,16,16,21,21,23,23,24,24,25,25,26,26,27,27,29,29,30,30,32,32,33,33,34,34,35,35,36,36,37,37,39,39,41,41,42,42,43,43,44,44,45,45,46,46,47,47,48,48,50,50],"right_children":[2,4,6,8,10,12,14,16,18,20,22,24,26,28,30,32,34,-1,-1,-1,-1,36,-1,38,40,42,44,46,-1,48,50,-1,52,54,56,58,60,62,-1,64,-1,66,68,70,72,74,76,78,80,-1,82,-1,-1,-1,-1,-1,-1,-1,-1,-1,-1,-1,-1,-1,-1,-1,-1,-1,-1,-1,-1,-1,-1,-1,-1,-1,-1,-1,-1,-1,-1,-1,-1],"split_conditions":[3E0,2.74E1,9E0,2.53E1,2.8E1,1.144E2,4.8E1,3E0,2.61E1,1.38E1,1.2E1,2.23E1,2.7E1,2.85E1,1.044E2,7.2E1,1.74E1,-5.9669194E0,-1.2087281E0,5.890503E-1,1.0522339E1,9E0,-2.6790383E0,1.098E2,5E0,2.9E1,1.2E2,8.55E1,-7.161587E0,9.25E1,1.098E2,-5.481702E0,2.2E1,7E0,1E1,2.86E1,2.7E1,3.2E1,1.3225458E1,9.88E1,-1.5546869E1,3E0,1.33E2,2.35E1,1.36E2,6.8E1,4E1,3.3E1,5.5E1,8.522803E0,2.212E2,-7.7118534E-1,1.7233887E-1,-3.676062E0,1.7043091E0,3.6712914E0,-1.5006278E-1,-1.460669E0,2.1002796E0,5.3654563E-1,-1.1076508E0,1.1839607E0,-6.8540773E0,2.4777772E-1,-1.0468494E1,1.3690027E1,2.6196313E0,-4.5321083E0,-7.6689404E-1,1.3003612E1,6.9280154E-1,-6.6810184E0,2.7275245E0,-1.0758296E0,8.740046E0,2.2619934E-1,2.0728718E1,-2.5651429E0,2.6439407E0,-1.0097704E1,-3.4037478E0,-8.2992244E-1,3.3173952E0],"split_indices":[1,4,2,0,4,4,5,2,0,0,2,0,5,0,4,3,4,0,0,0,0,2,0,4,2,3,3,4,0,4,4,0,0,2,5,4,0,5,0,4,0,2,4,0,3,3,5,3,5,0,4,0,0,0,0,0,0,0,0,0,0,0,0,0,0,0,0,0,0,0,0,0,0,0,0,0,0,0,0,0,0,0,0],"split_type":[0,0,0,0,0,0,0,0,0,0,0,0,0,0,0,0,0,0,0,0,0,0,0,0,0,0,0,0,0,0,0,0,0,0,0,0,0,0,0,0,0,0,0,0,0,0,0,0,0,0,0,0,0,0,0,0,0,0,0,0,0,0,0,0,0,0,0,0,0,0,0,0,0,0,0,0,0,0,0,0,0,0,0],"sum_hessian":[2.85E2,7.6E1,2.09E2,2.8E1,4.8E1,1.33E2,7.6E1,2.4E1,4E0,3E0,4.5E1,7.1E1,6.2E1,3E1,4.6E1,4E0,2E1,2E0,2E0,1E0,2E0,4.1E1,4E0,4.8E1,2.3E1,3.8E1,2.4E1,2.7E1,3E0,1.3E1,3.3E1,2E0,2E0,4E0,1.6E1,2.8E1,1.3E1,4.6E1,2E0,1.8E1,5E0,5E0,3.3E1,1E1,1.4E1,2.2E1,5E0,6E0,7E0,2E0,3.1E1,1E0,1E0,3E0,1E0,1E1,6E0,2E0,2.6E1,1E1,3E0,3.4E1,1.2E1,1.4E1,4E0,1E0,4E0,1.2E1,2.1E1,6E0,4E0,5E0,9E0,1.9E1,3E0,1E0,4E0,2E0,4E0,3E0,4E0,2.8E1,3E0],"tree_param":{"num_deleted":"0","num_feature":"6","num_nodes":"83","size_leaf_vector":"1"}},{"base_weights":[1.4801882E-1,3.44444E0,-6.340983E-1,-2.246493E0,8.261767E0,-1.620152E1,2.1406078E-1,-8.286264E0,3.52233E0,2.5374125E1,8.857221E-1,-2.80065E1,2.7120972E-1,1.4659474E1,-1.8819173E-1,-4.4243946E0,-5.90531E0,-8.014221E0,7.397228E0,1.1726408E1,6.5854006E0,-1.3074597E1,5.7607923E0,-2.5477397E0,-3.7680458E1,-9.083328E0,3.7960572E0,1.8582775E1,-7.435547E-1,-1.5370213E1,4.6962738E-1,-4.9462867E0,-1.56931E0,-3.6665406E0,6.912781E-1,8.292956E0,-2.340088E-1,4.0411987E0,-7.4849856E-1,-4.30608E0,-6.122327E0,2.7264679E1,-7.946603E-1,-1.3114792E0,1.6499634E-1,-5.0246525E0,-1.38155775E1,-1.487732E-2,-3.6234133E0,8.3369756E-1,6.5516925E0,-2.8563964E0,-2.4809986E1,-9.2490256E-1,4.3657727E0,1.0352293E0,-2.9886339E0,1.4203283E0,3.7341433E0,1.7940675E-1,-1.8420365E0,1.1736511E1,-1.2459595E0,-1.985918E0,3.3043215E0,-3.4875734E0,6.7263794E-1,-9.922421E0,1.2373536E0,1.7889595E-2,-4.5324492E0,9.66897E0,8.882558E-2],"categories":[],"categories_nodes":[],"categories_segments":[],"categories_sizes":[],"default_left":[0,0,0,0,0,0,0,0,0,0,0,0,0,0,0,0,0,0,0,0,0,0,0,0,0,0,0,0,0,0,0,0,0,0,0,0,0,0,0,0,0,0,0,0,0,0,0,0,0,0,0,0,0,0,0,0,0,0,0,0,0,0,0,0,0,0,0,0,0,0,0,0,0],"id":33,"left_children":[1,3,5,7,9,11,13,15,17,19,21,23,25,27,29,31,-1,33,35,-1,37,39,41,43,45,47,-1,49,-1,51,53,-1,55,-1,-1,57,-1,-1,-1,59,-1,61,63,-1,-1,-1,-1,-1,-1,-1,-1,65,67,69,71,-1,-1,-1,-1,-1,-1,-1,-1,-1,-1,-1,-1,-1,-1,-1,-1,-1,-1],"loss_changes":[7.395457E2,1.5263899E3,3.066715E3,9.350887E2,3.7641711E3,2.3411187E3,1.2869244E3,4.8514258E2,6.851244E2,2.0615903E3,1.5725859E3,1.6280093E3,8.099211E2,4.494828E2,2.164415E3,3.5298264E2,0E0,2.0182556E2,8.703949E1,0E0,3.462137E2,2.979281E2,2.4181174E3,1.9353765E1,1.0482422E2,1.0761493E2,0E0,1.9661084E2,0E0,9.9228125E2,1.1341625E3,0E0,4.557018E2,0E0,0E0,8.889783E1,0E0,0E0,0E0,3.964924E1,0E0,1.6525701E3,1.0359525E3,0E0,0E0,0E0,0E0,0E0,0E0,0E0,0E0,2.4960611E2,1.3320994E3,2.151343E3,6.227364E3,0E0,0E0,0E0,0E0,0E0,0E0,0E0,0E0,0E0,0E0,0E0,0E0,0E0,0E0,0E0,0E0,0E0,0E0],"parents":[2147483647,0,0,1,1,2,2,3,3,4,4,5,5,6,6,7,7,8,8,9,9,10,10,11,11,12,12,13,13,14,14,15,15,17,17,18,18,20,20,21,21,22,22,23,23,24,24,25,25,27,27,29,29,30,30,32,32,35,35,39,39,41,41,42,42,51,51,52,52,53,53,54,54],"right_children":[2,4,6,8,10,12,14,16,18,20,22,24,26,28,30,32,-1,34,36,-1,38,40,42,44,46,48,-1,50,-1,52,54,-1,56,-1,-1,58,-1,-1,-1,60,-1,62,64,-1,-1,-1,-1,-1,-1,-1,-1,66,68,70,72,-1,-1,-1,-1,-1,-1,-1,-1,-1,-1,-1,-1,-1,-1,-1,-1,-1,-1],"split_conditions":[1.77E1,6.57E1,1.83E1,5.1E1,3.6E1,4.2E1,1.85E1,3.2E1,7E0,5.2E1,5.9E1,4E0,1.82E1,1.1E1,1.92E1,7E0,-5.90531E0,2E0,1.75E1,1.1726408E1,1.69E1,1.47E1,7.9E1,1.79E1,6E0,6E0,3.7960572E0,3E0,-7.435547E-1,2.4E1,3.6E1,-4.9462867E0,1.63E1,-3.6665406E0,6.912781E-1,8E0,-2.340088E-1,4.0411987E0,-7.4849856E-1,1.17E1,-6.122327E0,1E1,7E1,-1.3114792E0,1.6499634E-1,-5.0246525E0,-1.38155775E1,-1.487732E-2,-3.6234133E0,8.3369756E-1,6.5516925E0,2E0,7E0,3.2E1,8.96E1,1.0352293E0,-2.9886339E0,1.4203283E0,3.7341433E0,1.7940675E-1,-1.8420365E0,1.1736511E1,-1.2459595E0,-1.985918E0,3.3043215E0,-3.4875734E0,6.7263794E-1,-9.922421E0,1.2373536E0,1.7889595E-2,-4.5324492E0,9.66897E0,8.882558E-2],"split_indices":[0,4,0,3,5,5,0,3,5,3,3,1,0,2,0,3,0,1,0,0,0,0,3,0,2,1,0,2,0,5,5,0,0,0,0,2,0,0,0,0,0,2,5,0,0,0,0,0,0,0,0,1,1,5,4,0,0,0,0,0,0,0,0,0,0,0,0,0,0,0,0,0,0],"split_type":[0,0,0,0,0,0,0,0,0,0,0,0,0,0,0,0,0,0,0,0,0,0,0,0,0,0,0,0,0,0,0,0,0,0,0,0,0,0,0,0,0,0,0,0,0,0,0,0,0,0,0,0,0,0,0,0,0,0,0,0,0,0,0,0,0,0,0,0,0,0,0,0,0],"sum_hessian":[2.85E2,5.4E1,2.31E2,2.5E1,2.9E1,1.1E1,2.2E2,1.2E1,1.3E1,8E0,2.1E1,6E0,5E0,5E0,2.15E2,1E1,2E0,3E0,1E1,4E0,4E0,5E0,1.6E1,2E0,4E0,3E0,2E0,4E0,1E0,8E0,2.07E2,1E0,9E0,2E0,1E0,9E0,1E0,2E0,2E0,3E0,2E0,3E0,1.3E1,1E0,1E0,2E0,2E0,1E0,2E0,1E0,3E0,4E0,4E0,1.53E2,5.4E1,6E0,3E0,6E0,3E0,1E0,2E0,2E0,1E0,9E0,4E0,1E0,3E0,3E0,1E0,1.44E2,9E0,6E0,4.8E1],"tree_param":{"num_deleted":"0","num_feature":"6","num_nodes":"73","size_leaf_vector":"1"}},{"base_weights":[6.422897E-2,3.0679193E-1,-8.403183E0,